solver_type L2R_L2LOSS_SVC_DUAL
nr_class 2
label 0 1
nr_feature 24441
bias -1
w
0.152648250352947 
0.05326129383952555 
0.260672893934927 
0.1369718090037564 
-0.07880188686264261 
0.0376325645903383 
0.1817013496408773 
0.6514567563846873 
0.4961276055027988 
0.173193725436642 
-2.775557561562891e-17 
1.387778780781446e-17 
-0.1234531134658114 
-0.1040693261452856 
0 
-0.3330760525911627 
0.01064215979404786 
0 
0 
-0.3445482129528541 
0.09072731029238557 
0 
-0.1312567083788935 
-0.427570344820301 
-0.4222678742114518 
-0.1617853617470567 
-0.2198238353475596 
-0.1181644860098187 
-0.1241632672366922 
-0.05515258790919286 
-0.4055880480913838 
-0.06629842597507379 
-0.1580853875029239 
0 
-0.09304220214634415 
-0.3524333494828654 
-0.2207826921339391 
0 
0 
-0.2036883989026605 
-0.459012218199792 
-0.2809693503746159 
0.2479659920878407 
0 
-0.1785750015848026 
-0.1650962245795828 
0 
-0.1992573857346999 
-0.1173621412004652 
-0.1278513777405835 
0 
0.03709845526350088 
-0.3403517960706635 
0 
0.8373576525537841 
0.06085523636369389 
0 
-0.6400817761787884 
0.08571544220931164 
0.09058165141654352 
0.1443945175044181 
-0.02975724417021497 
-0.1150074888695329 
0.8061699753672751 
0.2116233276823641 
0 
0 
1.668504072483765 
0 
0.0219897777532046 
0 
0 
-1.387778780781446e-17 
0.3948547749073036 
0.01188559555626484 
0 
-0.3604688058989638 
-0.3516889513184474 
-0.3058215149557442 
0 
0.6630279240358976 
0.2392365263340123 
0 
1.247474821933716 
-0.1461060085151733 
-0.6706706408449253 
0.8338957272688134 
-0.1913411018117976 
-0.03198527075570301 
1.154883804401484 
0 
0 
0.403196396923762 
0 
1.84517413737748 
0.3834264185517089 
-0.4485797948615861 
-1.847457223127389 
-0.4452032115198154 
1.43100976822385 
-0.1762368026997687 
0 
-0.6274715518489213 
-0.4750722918697311 
-0.9938938843329475 
0.6546338124782896 
0 
0 
-2.317742833186412 
1.21029397087681 
0 
0.9430620461798801 
1.022848262636091 
0.7569462093753047 
0 
0 
0.9941949617322681 
-0.6391646265648714 
0.01178376368489791 
0.5665592011474015 
0.1729639582352029 
-6.938893903907228e-18 
-0.2298805591036098 
0.1855017113626435 
0 
0 
0 
0 
0 
0 
-0.1864989623013565 
-0.1329176819307328 
0.2969655163445464 
-0.07509045463048414 
-0.3879380273245182 
-0.00825576005399515 
4.163336342344337e-17 
0 
1.443628541364486 
1.290659973541453 
-0.5899793496426227 
1.079605035710259 
0.7773504395268677 
0.1424196499950352 
0 
0.2072245708419529 
0 
0.00232918055593498 
2.014305071122093 
-0.3052905169040293 
0 
0.5622514938497511 
-0.1280731013456225 
-0.3807345059051143 
1.755581621757061 
1.275962279312369 
0 
0.1620003870499132 
0.6950758162855589 
-0.1492346848216136 
0 
-0.03856948956845829 
1.341417924379139 
1.42092510178335 
0.8439189822373933 
0 
0 
0.03437190158618436 
0 
0 
0 
0.3659583590086074 
0.5082770110866821 
-0.305262311731673 
0 
0.152824885326698 
0 
-0.002939475449222319 
0 
-0.8779926791609134 
0 
-0.06823514264478131 
0.03000884677897753 
-0.05605485382550089 
-0.07150034780092251 
0.5902390951625016 
0 
0.8633792826811825 
0 
0 
0.3703793978437303 
-0.01851450139750715 
0 
0 
0.6310747404632286 
0.7018921751428711 
-0.3964955470457761 
0 
1.753771745085393 
0.7670296581181563 
0 
-0.09795007865811492 
0 
-0.5146670524657693 
0.3365521200605118 
0.8116672194489382 
0.3929286159491704 
-0.1086172794382768 
0.1096953827594931 
0.04363502675079747 
0.6201388497974939 
1.090150985373551 
-0.1677804964233847 
0.5450455496001221 
0.03930746764973497 
0.01764163216362433 
0 
0.03584124694098707 
0.5983362693181181 
0 
0.9987064126217586 
0 
0 
0.1729681444650629 
1.11816599557269 
-0.1465381359567003 
0.184231933814602 
0.05458412551886543 
0.3772056978282832 
-0.4602359059082197 
0.7011899789185122 
0 
0.6244618626868438 
0.02444555174928187 
0 
-0.5660777780543932 
0.4905282774229386 
0.140937106337989 
0 
3.469446951953614e-18 
0.02592485476369523 
-0.7956246541091333 
0.5582006771269388 
0.7802324592514578 
0.6870745479388688 
0 
0.2830957715950942 
0.3228171152969169 
0 
0.4586405981450947 
-0.07710980151789606 
0 
0 
0.03899209458167496 
-0.1229776465519619 
0.2974747273056484 
0.03755553194583311 
-0.1709292128492038 
0 
0.5104703642314781 
-0.5936443377912897 
2.081668171172169e-17 
0.9368090333726716 
0.2582631740258108 
1.756399368269473 
-0.2347433408097535 
0.7322192063538037 
0.448611231584694 
-0.3009017139485122 
0 
0.1525535008988151 
0 
0 
0.1814694244868674 
1.838203989013897 
-0.09436611078369644 
0.1876998697822927 
0 
0 
0.03559183440194338 
-0.3727015282340868 
0.6346750605073702 
0 
0 
1.777474197551785 
0 
0 
0 
0 
0 
0 
0.5617784509374757 
0.008058334859702393 
0 
0 
2.913919592797245 
-0.4089643535672528 
-0.1208061641311706 
-0.03437889370018965 
0.2537922776503609 
0 
0 
0.7724517866378097 
0 
0 
0 
-0.3989805124142399 
1.084563452551199 
-0.1234140518354494 
-0.05982104259942209 
0.1145245223400497 
-0.5146670524657693 
0.8748212083493924 
3.233621212795732 
1.023946101370263 
0.1190941160688013 
0 
0.4484836799534939 
-0.4393579742297323 
-0.135010408315127 
0.8642397382190506 
0.6692159975620596 
0.8847403444050292 
-0.1545125640924351 
0.1110213824763426 
0 
0 
-0.1796449646869946 
5.030698080332741e-17 
0 
-1.07136526913682 
-1.56391588590454 
-0.1390505888042425 
-0.9029094524664855 
1.135072265092177 
-0.1094572365966253 
0.3347844963875948 
0 
-0.03841571345507233 
-0.2582053261887561 
-0.5923021185212578 
-0.4574330507358996 
-0.197102449686773 
0 
1.05155787472651 
1.270700057040177 
0 
1.25159591557201 
0 
1.141983675783578 
-0.2861854143932457 
-0.5318254654382731 
0.4198046541844617 
1.595403164184179 
-0.03454682584196759 
0.158462417161863 
0.3932028232169091 
0.1124798983875515 
0 
-0.4876863487117062 
0 
0.07832010699202688 
0.9426312460646982 
0.2234044545896766 
0.009106897369550029 
0.2811197427295575 
1.031190459867355 
0 
0.1345096463157641 
-0.1077767470622692 
-0.5421118885785177 
-0.2530886154893004 
-0.6284151649510356 
0 
-1.006139616066548e-16 
0.02788522083907868 
0 
0 
0.1955838517475328 
0.6489227245727447 
0.1120168207360756 
0 
0 
-0.3217733778338704 
0 
-0.5165699372214227 
-0.4840819308745241 
0.4047560354681481 
0.5443070374181607 
1.236241039806097 
1.079692834405908 
2.149097372970656 
0.2770679945202188 
0 
0.3560231178254687 
4.163336342344337e-17 
0 
0 
0.6920897017565842 
0 
0 
0.6477362490692612 
0.2694758454785016 
-2.775557561562891e-17 
0 
1.260131622796969 
0.0219897777532046 
0 
0.1543856262493088 
0.2213261971232842 
0.622466288315108 
0.5920512555168153 
-0.1787576870147576 
1.306420726825799 
6.938893903907228e-18 
0 
0.0293192792067858 
0.8265009885213228 
0 
-0.5228591106407764 
0.1813089989632269 
0.06176806959842431 
0.05309164512076411 
-1.453734182836568 
0 
0.1617520287318619 
0.09520382234488375 
0.09705050608495353 
1.084667166210027 
-0.0233721865236233 
0 
0 
0.7593359115199422 
-6.938893903907228e-18 
-0.2411752894869542 
0.3297964748107804 
0 
0 
-0.6168940434419721 
0.9408345932708782 
0.6844108993645405 
0.09220964441218948 
-2.42861286636753e-17 
0.7026460246728317 
-0.3035244675095118 
0.7279362739284289 
0 
-0.2670661928011377 
0.1196410424148292 
0 
-0.3962081168190563 
1.154271174174538 
0.02788522083907868 
-1.734723475976807e-18 
0.06850491692511995 
1.161088887671321 
-0.1931143614686883 
0.01002122144250281 
0.1746305700317129 
-0.1509733533543643 
0 
0 
0 
-0.4153215090596222 
-1.030122291718743 
0 
-0.01885076380924811 
1.387778780781446e-17 
1.519931692344479 
0.1216785879317253 
-0.6480330567713729 
0 
-0.1302170015214626 
-0.1659450923388068 
0 
0 
0.6683990584551697 
-0.1503279997451439 
0.5671813461419926 
0.2014778322721897 
-0.1865710464622027 
-0.2670661928011377 
0 
1.176502865581468 
0 
0.02444555174928187 
0.2551667590146295 
0.801449775972345 
-1.387778780781446e-17 
0.3044763573241725 
0 
0 
0.1625114001342115 
0 
0 
0 
1.060822338706148 
0 
0.4588909424907924 
-0.4026930950770674 
1.170193770126567 
-0.06707697020288422 
0 
-0.1920304655787148 
-6.938893903907228e-18 
-0.30160646228316 
0.1982566109185011 
0.4622304152895421 
0 
-0.4823211007884213 
0.1917206015518145 
1.07029636413051 
-0.2001452402816002 
-2.035970530594727 
-0.4121294619720725 
0.2777330781140313 
0 
0.8089878894754551 
0 
0.1230968322458833 
0.1183156675027721 
0 
-0.2514445620090729 
0.7823517034240929 
0.6714536033568396 
-0.1274190470584662 
-0.001829924405183536 
0.3370318260006527 
0 
0.6443244532322552 
0 
0.5556973829520317 
0 
0.005838357303520662 
0.5898658841863312 
-0.6941010625274489 
-0.3866945560468593 
0.5725375784096376 
0 
-0.4035132261590416 
0.2531149845068349 
-0.4441615373932549 
0.7622863795872215 
0.1783097113009913 
0.8530594714291585 
0.5605166110677703 
1.475148793477026 
-0.4349245483229388 
0 
1.534466460535511 
0 
-0.3007383355392335 
1.961451168162384 
0 
0 
-1.453734182836568 
0.3517517042766681 
0.08561645917108854 
-0.5752581538153809 
0 
0.4091453272057554 
-0.3576230826471998 
0.4717582376981275 
0 
0.4194226032879068 
0 
-0.03571863600395465 
-1.828331786206679 
0.1413092543293165 
0.02557630400879791 
0 
0.6192145917775344 
0.1282560494032232 
-0.3841222791561792 
0.8771212004925909 
0 
0 
0.9113813397608671 
0 
0.1143566538341623 
-0.08592634909106242 
0.3358267290139124 
0 
0.7066443107023602 
0.2264480925235881 
0.7200365577965925 
0.01134160522558879 
-0.2197157223562656 
0.5997933030795639 
0.5593164091060187 
0.009788505417154661 
-0.1606426451955076 
0 
0 
2.587222957449562 
0 
-0.009942203437633558 
0.7911998733524331 
-2.775557561562891e-17 
-0.9142979246028927 
0.8297495534443894 
0 
0.4511482344923017 
0 
2.069580035110522 
0 
0.03161425987763211 
-0.04964920883635798 
0.327489068128449 
0.4903798954720985 
0 
0.01190962959734742 
-1.762211507481235 
-0.3601617602710594 
5.551115123125783e-17 
0.8498985794704685 
0 
0.3754755080278041 
-0.2907044519596399 
0.09220964441218948 
0.01879785269797544 
-0.1047709869010206 
0.9552640092378716 
0.6758156850898283 
0.1118857017293687 
-0.2506628474179354 
0.3130166475522295 
0.02646152700009757 
0.3516022472377994 
2.797241605012601e-17 
0 
0.1595339236179599 
0.2358474914040768 
0 
-0.0150307060703343 
-0.1008907704544253 
0.02718869392515661 
0.4777949773237233 
0 
0 
0.5237186746667329 
0.2974747273056484 
-0.4646155390691571 
0 
1.100584581123943 
0.06007522673578985 
-0.9114520839991952 
-0.04743900237731725 
-0.6400817761787884 
0.1297464184330019 
0 
-0.2110220364866508 
-0.02853045181747377 
0.3562205930239071 
1.91879320751811 
0.08755904341551116 
0.5717355099131189 
-0.1582810371131669 
-1.217335841224106 
1.057693658403892 
-1.07552855510562e-16 
0 
-0.328544818858118 
0.133324509082142 
0 
0.8373704562506232 
0.7058322374083145 
0.09057861119517659 
0 
0.587783600900171 
0.03169132320888579 
0 
1.429097971189496 
0 
0.4279111733180199 
0 
0.8205633043690735 
0.1435668682426611 
0.2087210992459349 
-0.3407919816432277 
0.09008952453648654 
0 
0.5346069515472893 
0.258893416202733 
0.3550937666747828 
3.469446951953614e-18 
1.110223024625157e-16 
0.2179267128520317 
1.35500669794585 
0 
1.597482937195878 
1.468686437471737 
0 
0 
5.551115123125783e-17 
0.6811939335796111 
0 
1.734723475976807e-18 
0.05510115203847493 
0 
-1.040834085586084e-17 
0 
0.4623361630381944 
0.1277680433868181 
0.5010355575824658 
0 
3.469446951953614e-18 
0.1531520994322993 
0 
0 
0.4497191138816409 
0.7810918892662183 
0.01190962959734742 
2.775557561562891e-17 
1.412940889477502 
-0.8493401014304539 
-0.2373426558649167 
0 
0 
0 
0.5284987852129015 
0.2084083309759255 
0 
0.3507030842008761 
0 
-0.1263454852132521 
-0.2086131442116261 
0.173188970295657 
0.02719191584956667 
-0.0267660500649011 
0 
0.2508667806147435 
0 
-0.5266815488969453 
0.7528307931332758 
0.004020278880594277 
0 
0 
0 
0.369849606287255 
0 
0.4557747150523703 
-0.4468162773042863 
0.4179732644618892 
-0.0604605731955562 
0.04131501813477063 
-0.1037397351718776 
0 
0.5022702414173467 
0 
-0.4156523360478197 
0.09220964441218948 
0 
0.01800733364110708 
0.4630507802816136 
0.03409914252861768 
0 
-0.1687534201768952 
0 
1.22965364920393 
0.4535461786350812 
0.4933838614995517 
-0.006717137987910377 
0.732207245768056 
-0.02348623780802693 
0 
0 
0.06733231164187603 
-0.06921653665674501 
0 
-0.08271212345440437 
0.4497191138816409 
0 
0.04268554160021017 
-0.2483722999620652 
0 
0.7373791949003359 
0.8433943127705784 
0.3360358787181019 
2.079695294616587 
0.5648040558131975 
2.338584633773981 
-0.2127363943010205 
3.78191359696201 
0.3030175733850349 
0 
-0.01454370536875094 
0.3030292998745188 
-0.183372317640777 
-2.775557561562891e-17 
0.3744157653269101 
0.2132358554982662 
-0.08244070182748069 
0.2961090505882801 
0 
0.7546226001950116 
0 
0.07715906485464667 
1.995948342645895 
0 
0 
-0.02591945412132555 
0.2911218064454424 
0.005372258262152414 
0.02268653521710259 
0.8593899374555766 
-0.726815704278453 
-0.04876500450277537 
0 
-0.2154613770311678 
0 
0.4193186836583487 
0.2284993456980529 
0 
0.3747763183598631 
1.215218576568655 
-0.554798055096672 
0.189682122639359 
0.2723536540795902 
1.599071110755361 
0.4301213898794426 
0.2485586708689073 
0.08448063360479238 
0 
0.7208782772993336 
0.134875104475194 
0.3490891516375667 
0.09046035018399745 
0.06176806959842431 
0.07047868790994492 
2.617328248684234 
0.171596607396247 
-0.04969419450141847 
0.6743061640178549 
0 
1.54932529775819 
-0.3489312675350276 
0.01326140454603617 
0.08848871078638586 
3.469446951953614e-18 
1.657285400188465 
0.3591673964429287 
0.6793425477928359 
0.05192798678068269 
0.4626942101112108 
1.583796228775439 
0.3609502446039285 
0.3510674954512648 
0 
0.1904495936872547 
0 
0.02987790136594633 
0 
0.3483182680796532 
0 
0 
0.2251977827958262 
0.118315667502772 
3.339342691255354e-17 
0 
-0.4145370916011344 
6.938893903907228e-18 
0 
0.3621744838471572 
0.5574429974237176 
-0.2754032762835358 
0.1172205070777626 
0 
-8.361909255294453e-17 
0.5359708128411427 
0 
0.1193231315336766 
0 
0.09730733062243292 
0.6824404851400536 
-0.4271072908706872 
-0.04698317606330118 
0 
0.5358144165299917 
0 
0 
-0.05301365248124745 
0.7775186994931357 
0 
-0.2521334078205287 
1.108563977407405 
-0.1615089426975884 
0.5089686091671286 
-0.6744642285808258 
-0.3220308408863274 
0.7117267079027356 
0 
0.746344818083798 
0.9787061120699198 
0 
-0.12040229458124 
1.907487107813375 
0 
-0.09303640448079507 
0.03592873205199486 
0.1111810385443669 
0 
-0.1259209607597417 
0.07517313379609353 
0 
0 
-0.02480124992211508 
1.917762069012504 
0.06181189045982629 
-1.387778780781446e-17 
-0.2617067777022183 
1.898159062705202 
0.7903996889753607 
0.1518702549852303 
0 
0.8562154925821969 
0 
0 
0.2414104109345276 
0.4863803574581923 
0.3058267372343652 
0 
-0.2194332678830159 
0.001077040819134178 
0.3855739863211313 
0 
0.7536818844253462 
0.2245650097408225 
0.9858904822107829 
0.3313465974438549 
0 
-0.1210906103482503 
-0.2654673654860991 
-0.5351519608686993 
-0.152952775907746 
0.2326928064092949 
-0.4971232202471655 
3.469446951953614e-18 
0 
-0.09295383421700784 
-0.3217159345448094 
0 
0 
0 
0 
0.3014431569331281 
0 
0 
0.1038029248443631 
-2.021293437061792 
0 
0.04629272692086546 
0 
0.1202865827001915 
-0.5166645260161468 
0.1670821296964702 
-0.2630728818221409 
-0.01142580834561645 
0.371752921413978 
-0.5641504011382734 
1.3859528485854 
1.261983156766732 
0.3908670333253182 
0 
0 
0 
-0.05910939648149416 
0 
0.6120630439241662 
0.2033207683017645 
0.1820376308713051 
0 
0 
3.469446951953614e-18 
0 
0.01054665302233467 
0.0994470719360197 
0 
3.469446951953614e-18 
0.006987926999179149 
0.9524029578093443 
1.010366725000134 
0 
0.3131364623292757 
0.2982291037118829 
0.0377599320256205 
0.3267268025908556 
0 
0 
-6.938893903907228e-18 
2.14951738851989 
0.9507484261839444 
0.5350586725337904 
0.2401859646290454 
0.6752960722107808 
0.387780627574083 
0 
0.99924089668941 
0 
0 
0 
0.13160232955404 
-0.2648098608138143 
1.922614135336534 
0.3550839560576045 
0.037130129524449 
0.7255491592839374 
0.003738491346471296 
0.1135653883493023 
0 
1.321258159969444 
-0.07230425244798998 
-0.5649638217733775 
-0.03204946019684744 
0.9578035697865449 
0.1238182835817966 
0.7091096883151851 
-0.2167958623623929 
0 
0.3199998541691023 
1.611986229893152 
0.2011163353790622 
0 
0.3526535676348463 
-0.3257861994805834 
0 
1.040834085586084e-17 
0.009957182194224333 
-0.1182675068894513 
-0.3371650024111947 
0 
0 
0.7075579482495075 
0 
1.937910077594879 
0 
0.4371249592149709 
0.1084577315900932 
0.9916340553818179 
0.4290620637638051 
-0.4062099095538606 
-0.1303806623089214 
0.2462207822739206 
0.3151171791203745 
0.5918013248877749 
2.775557561562891e-17 
0 
0.1977295604051341 
-0.09741826320147329 
-0.2366546185546418 
0 
0.02398071218017192 
0.2261634670903009 
0 
0 
0 
0.09205826019853641 
0 
0.8768056988033117 
0 
-0.08633378694799208 
0 
0 
2.215911955609442 
-0.2960843553626296 
0.03365448615155168 
0 
-0.7426268921762273 
-1.214306433183765e-17 
-0.01587323560754655 
0 
0.5069109764548412 
0 
0.2234783900590601 
0.3790138949944738 
0.3227933859305268 
-0.2110220364866508 
0.06307235302585883 
-0.3409231555667984 
0.002950758481795435 
0.007328177692185433 
-0.3983146139797876 
1.439355776379994 
0.3798633573502411 
-0.05618402379252285 
0.2353623748380646 
-0.2502516448215877 
0 
0.5769686612514817 
-0.03242869573705601 
-0.05005014677485242 
0.007150771757967812 
-0.3966127938866794 
0.08448063360479238 
0.7523397947591797 
0.08653326834164166 
0 
0.8172169617384493 
0.08838818365073228 
-0.3242040699067569 
0.392199133102789 
0 
1.476672652206377 
0.04982286844348555 
0 
0.6567897785834893 
-0.6978015155625472 
-0.1071316488515148 
-0.1448706929013844 
1.004293312610495 
0.1243560679859884 
0 
0.2196020408197357 
0 
0.7031299185805034 
0 
0 
-0.949117374850355 
1.00728472168365 
0 
-0.3675412833716801 
0.4885117121411621 
0.3902342483193442 
0.8490732842208754 
0 
0 
0 
0 
-1.420151198982286 
0.3170367942615298 
-1.088012588399495 
0 
0.8703486473828728 
0 
0 
0.04488923762021928 
2.21758017010214 
-0.2743435790890532 
0 
-0.02530714082359291 
0 
-0.2858838670909762 
0.1648240731398729 
-0.08103192656653016 
0.1949785623774424 
0.08965566292176237 
1.371025519731667 
0 
-0.2699097935753155 
-0.684759030909371 
1.210175589797605 
-0.03571863600395465 
-0.3940973552309437 
0.02373652944257992 
0.04058894569313272 
0.1739854940289395 
0 
0.5242896469996925 
0 
1.267619485292249 
0.02199338494906828 
0.7485359038173892 
1.218287865574799 
0.285958837756455 
6.938893903907228e-18 
-0.3004521938592434 
0.1163166114291354 
0.7454226286013748 
1.254061517467241 
1.739901392791086 
0 
-0.2255901283834312 
0.2943910869381089 
0 
0 
-0.2629606293004151 
0 
0.5952414158906707 
0.9574852564231041 
0.03605506311233334 
1.332011177426644 
1.030101850542038 
-1.027337821006215 
0.8859452597870414 
0.9788088266265279 
0 
0.9259225932250452 
-0.2918830603315514 
0.3491098743163342 
0.6603662821193541 
1.228562614600343 
0.6158487336965536 
0.1768663908455337 
0.01828379453771455 
0 
0.2886865234532031 
-0.5003864645510633 
0.4861206912722892 
0 
0.7217137405110801 
0 
0.01097120410296923 
1.958539977220224 
0.596961464136007 
-0.02324916398881442 
-0.237113675469978 
-0.1497213968618129 
0.553960461920591 
1.040834085586084e-17 
1.105775662321791 
-0.5783053899472765 
1.178384741710218 
2.101472949767857 
0 
-0.07347949856560562 
-1.062586090516129 
0.323150469805378 
0.05528717680673031 
1.335991309104741 
-0.1638928425868707 
0.5145166855424759 
1.140512178492034 
-0.5728992710731077 
0.6369482464715805 
0 
0.5075790396554077 
0.05717436407490071 
2.35068484391392 
0 
0 
0.8130001707662395 
-0.2036141042056081 
0 
-0.3255333730770719 
0.1687110162218646 
0.01885251776313585 
0.2886343118619279 
0.9346927408260448 
1.387778780781446e-17 
0.6578329500992346 
0.01709667849963383 
0.02373652944257995 
-0.1720938351860783 
-6.938893903907228e-18 
-0.08142828112371835 
0.6957467780519786 
0 
0.02663273134985715 
0.4461554444279835 
0.3418348565068369 
-0.09234843585983332 
0 
0.7075579482495075 
-0.1181149607658322 
-0.1309464420087157 
0.1432064945820403 
0 
0 
0.06500814773957043 
0.7389062710884767 
0.1836327264085325 
0 
-0.1216683519758788 
-0.2179673112273618 
0.419766177932557 
0.04380451391793222 
-1.884029490608029 
0 
0 
-0.5447436838415533 
0.264181717093103 
-0.2408343329369361 
0 
0.5959578072479089 
-0.1311650802168069 
0.6838734695561168 
0.1035564676747183 
0.5697314667489752 
0.9217695188325077 
-0.4454305791906514 
0.6740502966378821 
0.4348815899731631 
0.7735467378565436 
0.2923732313704982 
-0.07977764559551848 
0 
-0.9043668419504108 
0.09697152719783658 
0 
0.01801639714314573 
0.03029672137309049 
-0.2609592972656919 
0.4386841847760863 
-0.2590065596645205 
0.2390967782257547 
0 
-0.1268070740927362 
0.06579719448624699 
0.7428185113371091 
0 
0.9725438359342684 
0.1797458679266893 
-0.6911357510256618 
1.133500300314324 
0.1983483703153942 
0.02258112686500549 
-0.05769181825084363 
0.1313544158550678 
0.382323539085945 
1.028970553895249 
2.775557561562891e-17 
-0.2554762080454651 
0.0244839603619923 
0.06305601421295302 
0.02719191584956667 
0 
0 
0.1939085998475371 
-0.7762498614826139 
0.8310684265371946 
0.1666574820257679 
0.08334304379699035 
-0.2781595255780998 
0.7517819594427801 
0.5742772893010655 
0.4345539068668715 
0.9600252517424493 
0.06625330864450865 
-0.1385659675485384 
0 
0.08517138206786111 
0.3362921162467998 
0.07706894807967025 
-1.606968910083912 
-0.2417411201673821 
0 
0.1100230225327408 
-0.2629564125054835 
-0.1623812433155489 
-0.583688091739486 
-0.0737999924570279 
0.2543078768037852 
0.9489025304641453 
0 
-0.1001839853778348 
1.429542141215587 
0 
0.1387140712475186 
0.9639293821437049 
-0.2995264622007002 
1.476780839002524 
0.175284665933118 
0.7491673043084386 
0.4927042101467872 
0.002025304581353911 
1.24080458162506 
-0.1808787535860112 
0 
0.2218375926193322 
0.4122225716118225 
0 
1.011582402952738 
0.3839987087498627 
0.501583872329465 
0.1467749916172294 
0 
-0.3862303541638301 
1.340287418939695 
-0.8320005016329837 
0 
-0.06047495601192535 
0 
0 
0 
-6.938893903907228e-18 
0.5272358093978197 
0 
0 
0.4720312701264911 
-0.006955123786347578 
0 
0.4896550202739871 
0.1442834867825634 
0.8674323649253917 
-1.387778780781446e-17 
0.04843263913784476 
0 
0.1643299269343013 
-0.2765392609248478 
-0.09341941120193248 
6.938893903907228e-18 
0.2103391298382741 
0 
0.4872324848380665 
0.5214905279505057 
0.4837841649294204 
0 
0.9145615684538358 
3.456063952743672 
0.4379010477981748 
0.3271226026715264 
0.5552198810940396 
0.4288575094953851 
0.004917964380394296 
0 
0 
0.9757739016829166 
0.09186864417294451 
0.1985045464952943 
1.933985674889807 
0 
0.593586632435871 
0.006872578750067149 
0.8863689938702647 
-0.2441370081181808 
-0.5507840383242903 
0 
0 
6.938893903907228e-18 
5.551115123125783e-17 
-0.2192706535639828 
0.7096955322943566 
-0.3457536295904141 
-0.2903191702067057 
0.2713569839734007 
2.246157731656882 
0.1515533394504234 
1.009092274133394 
0.4379010477981746 
0 
1.005729884297182 
-0.1491549612998858 
-0.0255933815881948 
-0.1184784192476781 
0.1290633672885332 
1.387778780781446e-17 
-0.1565903098396173 
0.0498270005590041 
0.1055123198829686 
0 
1.606606593687177 
0 
1.273195294484532 
0.9168177069168897 
0.4780019847959462 
0.700655652475241 
4.85722573273506e-17 
-0.1648071167100543 
2.156397622468181 
1.153092696596477 
-0.3478611186349933 
-0.3580164772243313 
0.1050997298442518 
0 
2.230754599764935 
3.469446951953614e-18 
0.2374263158645064 
-0.06777631469301494 
0 
-0.2490997625328598 
0.1198593755205554 
0 
0.5457239523784934 
0.4125548752828588 
-0.1106546691563382 
-0.2667324444791324 
0 
0.3158324685992294 
0 
0.7687511409690353 
-0.1961471646469166 
-0.07997112379490444 
-0.5153697127082477 
0 
0.5736315923580005 
1.607373562688813 
0.8077472136275572 
0.003161794784667859 
1.387778780781446e-17 
1.981242229625786 
-0.09718642193216709 
0.1747483976030806 
0.7396403422007438 
0.246583598372716 
0.6018632131407436 
0.3761792443296554 
-0.1544677297147018 
2.636779683484747e-16 
0.3150337479407911 
-0.2724955875072249 
0.08606633630220023 
0.5143196644052205 
0.2818066566020553 
0.2770679945202188 
0.8030248117549021 
2.153622666690522 
0.4455257664194684 
0.5495023688939723 
2.313273923022535 
0.6640185991650759 
1.005729884297182 
0.01190962959734742 
0.8743308671068134 
0 
-1.387778780781446e-17 
0.4668253352625174 
0 
0.7978557356290547 
0.8464077078852746 
0 
0.2248218649937291 
0.558635492518279 
0.4754655610478395 
0.8277235289969525 
0.7651964750262301 
0.1389788210629887 
1.520149005174473 
-0.6239726007270155 
1.556786199444479 
-1.470949178130109 
0 
0.1651780667592906 
0 
0 
-1.063522483575345 
1.079255138099254 
0 
1.387778780781446e-17 
0 
-0.4699893428265801 
0 
1.836205918190777 
0 
0 
0.4664286520282951 
-0.5421118885785177 
0 
0 
1.198343795424306 
1.17574613409253 
0.1321031741765294 
0.1876503268181584 
0.2161201823901508 
0.2470150327311124 
2.215818176279641 
0.07149855681407562 
0.3816640444748867 
0 
-0.09671911342661388 
3.044383217004408 
0.3442342774311721 
0.2244388979710968 
0.006517090679043228 
-0.211022036486651 
1.387778780781446e-17 
0.8491183562809821 
0.3332399548631129 
0.4152347235191506 
0.03453327855248308 
-6.245004513516506e-17 
0.822791035380546 
0 
-0.009733842972552184 
0.03741056293907036 
0.3571435815151057 
1.098738556430663 
5.551115123125783e-17 
0.09633372147304069 
0.3734487699446171 
0.2180712884524677 
-1.848229386839599 
0.3441789078667493 
-6.938893903907228e-18 
0.1266985879030799 
0 
0.09003947471198775 
0.1106068159139706 
0.3479966865831988 
1.041514822495742 
0 
0 
0.4128655587344591 
0.3420128098626982 
0.05822921550934514 
0 
-0.02834114767052996 
0.8323997428529581 
0.2011514653293959 
1.774918822481425 
-0.2056966253252654 
0 
0.09539884849364043 
0.9075655820575339 
0 
-0.5300877277556 
-0.3479170529990876 
-0.2726931040026304 
0.1470373206830606 
0.7774008351078393 
0.3988445798109418 
1.096940819030064 
0.1924257188707533 
1.593761855780599 
0.1370544226456365 
0.02277697056350753 
0.5342723455340048 
0.06047381813289068 
0.7498077201246516 
0.2306870781323496 
0.4654450372633233 
0 
-0.1096426291901724 
0 
-0.2394783664479216 
0.5352930544476386 
-2.775557561562891e-17 
2.322803708782826 
0 
0 
-0.1691261590184247 
-0.01004343751423652 
-0.4023880786965474 
0.006872578750067093 
0.4344511265079544 
0 
0 
-0.08426920762921619 
-1.515559355155019 
-0.6406779151421792 
-0.1590691504706711 
0 
0.7733180070222254 
0 
0.02570814197214176 
0 
0 
1.80229491783708 
0.0372757953541257 
0.2842508242201027 
-0.7615704440271942 
-0.2537774018936122 
0 
0.1287226519299317 
0 
0 
0 
0.1518788239278497 
0.08255921604665431 
0.9257574390853081 
-0.2419752098919533 
0.02788522083907868 
-0.3930165192932779 
-0.4297778047608738 
1.319274291530291 
-0.2815264590596389 
1.570985816869597 
0 
0 
0.9820811754504746 
-0.3902235363325469 
-0.2470052243570319 
0.7397267162900959 
1.316740419383688 
-0.1998603105505304 
0.02064753405870551 
0 
0 
0.2317468134497701 
0 
3.469446951953614e-18 
0.5795642548830481 
0 
0.3441386185899302 
0.5553654393000043 
0.3234093072641744 
0 
0.5388244195284165 
0.06174025480868706 
0.01903231662384968 
0 
0.07108051257782269 
-0.1224287230873958 
0 
-1.387778780781446e-17 
0 
0.1407430551298136 
0 
1.467000693767793 
0 
0 
0 
0.5970721548493959 
0.4148668286534903 
0.0351910541770598 
0 
-0.2845388434639754 
-0.2919926731778276 
0.07629601537355316 
0.244549235856893 
0 
0 
-6.938893903907228e-18 
-0.1113137107759749 
-0.1076409557892817 
0.004348533387182567 
0 
-0.02601469403795188 
0 
1.480962909832967 
0 
0.6955521398323665 
1.455220800815714 
0 
0.5655630459506613 
-0.0001093702288510745 
0 
0.3285199456901836 
2.654521014466938 
-0.02661624331911804 
0 
0 
0.8690926191930145 
0 
1.295233557299593 
0.2004577056372242 
-0.9561116291576046 
-0.1338765708671319 
0.2022274495174095 
0.2109980486841849 
2.693347775307713 
0.5208112261953443 
0 
0.2078025695491933 
-0.5754127381948548 
-0.2195914270000056 
-0.09481016004279591 
0.4883582461529873 
0 
0 
0.4198279342818495 
-0.2858627630016835 
0.5498035188760517 
3.469446951953614e-18 
0.7459950173344275 
0 
0 
0.466253009233929 
0 
0 
0.2419651582279341 
-0.4592636469167988 
0.8995153415575644 
-0.2186149637166721 
-0.2426247677136156 
0 
0.6204228302171877 
0.181412671419304 
-0.3850341052929455 
0.02198977775320461 
0 
0.1220869744942047 
-0.02923445819585684 
0.1660476633884536 
0 
0.2199596851047448 
-0.0511194307628203 
0.05744015892600417 
0.1782940913485794 
0.1147750095105333 
0 
0.2225868967304289 
0.02258889185004208 
0 
0.1067620952359814 
1.902879642668892 
0.02322174495017619 
-1.058999708620966 
5.204170427930421e-18 
-0.3066904117805495 
0 
0.3493672100001246 
0 
1.370320055281876 
0 
0 
0.03453327855248308 
1.90000253606849 
0 
-0.2120578470241278 
0.8112289715754293 
-0.8857055575724795 
0.01801856877940367 
1.664553294817001 
-0.6606690776150188 
1.103485631545565 
9.020562075079397e-17 
-0.3113258372315367 
2.172371745671233 
0.7886515758707852 
-0.1868725698705943 
0 
0.168649440192767 
-0.2228001805990956 
0 
0.3594841651531587 
0.08767463337744039 
0 
-0.02907442720627376 
0 
0 
0.03604220468549703 
0 
-0.3270144753465919 
0 
2.845239616679196 
0.5244589232993563 
1.016285775260513 
0.8889044642069623 
-0.4628700340253668 
0.3555573639167804 
0.5261552385541192 
0.6733913911641076 
0 
0.07620410708715752 
1.387778780781446e-17 
0.9455436037593909 
-0.2629607619416374 
0 
1.833990752702391 
1.959792670279695 
0.1672664264031348 
-0.7643204465416484 
-1.387778780781446e-17 
0 
0.9767335929734133 
-0.2366846112004584 
0 
1.009002374038594 
0.001629883407168559 
0.09857926696575547 
-0.7781901662429862 
0 
0 
-0.3653430830883829 
-0.2705845789000041 
-0.1866325556414263 
0.04186707761107158 
0.1685478535044667 
-0.3930766654394673 
0.0009633972235837771 
-2.081668171172169e-17 
-0.3297488390691283 
1.552422543927342 
1.714006342962287 
0 
0.2542607027824976 
-0.2082976419340808 
1.208305237749781 
0.9894470852595945 
0.05166148796370573 
0.07250894823730872 
0.09896860039006589 
-0.2475356823261848 
0.5267046923942407 
0 
0.03035557858576426 
0 
0 
0.3469486008773087 
0 
0 
0.08488289875479074 
-0.2792343486988295 
0 
0.3569226693172397 
0.01680684677455171 
0.8170333029799809 
0 
0.146815341791787 
0.1906805801967758 
0.7424396385136482 
-0.2884457084916351 
0 
0.3597701373030274 
1.35566129717103 
-0.3143563759081089 
0 
-0.2925736236417682 
0.4215231406047203 
0 
0.1176707629997099 
1.548071158074459 
0.470237356946325 
-1.387778780781446e-17 
0 
1.908195823574488e-17 
0.7182480667578888 
0.195003974264979 
0.2061691104250886 
0 
0.8237302760129999 
0.09251291138751633 
0.07552402514527695 
0.5928810212071377 
0.1685734105150659 
0 
0 
0.394760344602874 
1.453113108640217 
0.5115412083597107 
0.4773988047011573 
0 
0.01190962959734742 
0.2856446110341812 
-5.616837977906854e-05 
2.775557561562891e-17 
0 
0.6549805558010041 
1.387778780781446e-17 
0.06892864231420145 
1.91188163606086 
0 
0.3908605404534368 
0 
0.5333056615950272 
0 
1.640259847595732 
0 
6.938893903907228e-18 
-0.1560875994860305 
0 
0.3631212359581662 
0.1026291847643345 
0.3268073752106766 
-0.2516236204287323 
0.5975497432717725 
-0.008194190585641692 
0.4508414748481926 
-0.1556376932486372 
0 
0 
0 
1.664923906997406 
0 
0.06935649047402301 
0 
0.2432212881520445 
-0.6931238478202763 
0.5210941965939015 
0 
0 
0 
2.081668171172169e-17 
0 
0.1181801298309286 
-0.2211056616304132 
0.7491948188362185 
1.945651580019339 
0 
0.7974996315451863 
0 
-0.3280023602896791 
0.3355861063369726 
0.3575945274101673 
0.519824748547097 
0.3651302185933374 
1.076765404733251 
0 
-0.189072457878505 
1.155774529144948 
0 
0.7253205621029148 
-0.1818361562745328 
0.8696290259137766 
0.8656119405883028 
-0.242587575232164 
0.08839779499781497 
0 
0.1279494886476607 
0.8119433955559968 
1.568527852512713 
0.2647171020444505 
0 
0 
0 
0 
0.1021281882187463 
0.9908198127320718 
-0.05303397103856933 
-0.363200963202422 
0 
0.2544707678067415 
0.3929426404394307 
1.188240934866225 
1.284901135870836 
0.1291581523625214 
-0.1304804686455372 
-0.07022906507816311 
0 
-0.01857613392172688 
1.208305237749781 
0.06176806959842431 
0 
0.153287455607151 
0.9735340838753034 
-0.07776067636573114 
0 
0.6375509515850285 
0.4492920503929964 
-0.07959230223148085 
0.5470829949003196 
0.5251692161862549 
0.02736738727552541 
-0.120503706762589 
0 
0.2035513069213788 
0.3342610507654957 
0.483893613294866 
0.3005213100762545 
0.1999664281221533 
0 
-0.1468208368454993 
0 
1.0149250597548 
0.5287912877827263 
0.1742170263153453 
-0.3303036409546903 
0 
-2.775557561562891e-17 
-0.4283366792892002 
-0.5193484004143158 
-0.2710261289552711 
0.7492106017418664 
2.031276490279447 
0.4776131042989069 
0.04687794315418237 
0.07131618230132887 
-1.387778780781446e-17 
2.132748138207758 
0 
0 
0.0589381490490393 
0 
0.7761483019375204 
1.685109324632538 
0.07233025884196732 
2.233711936718087 
-0.7027408941214119 
0 
0.007221022382595249 
0.5991721521559794 
-0.02424117909151741 
-0.03497160426056528 
0.03971818491247554 
-0.06640979617746401 
-0.2879936169942638 
-1.387778780781446e-17 
1.869316603922585 
0 
0.5543269851248758 
0 
0.5008626346087803 
0 
0.1166766218601133 
0.7584611658116438 
0.5602251230143329 
0.8595053371709692 
5.72518601594505 
0.3807434965805491 
0 
-0.2159638506620483 
0.4290596211728983 
0 
0.1277096389510293 
0.3009198053687632 
0.3562205930239071 
0 
0 
0.0833812948006169 
0.9850726391333765 
-0.1727275462281423 
0 
-0.5722940592589555 
0 
-0.608172060412251 
-0.1490577205170169 
0.1524876728786025 
1.551144076004717 
-0.1930502357508708 
0.2385015437535403 
0 
0.0004164796144693752 
0 
-0.2767892732535752 
0.8408260766808583 
-0.2115764760991782 
-0.4356528736564375 
0 
0 
0 
0 
0.6925851549636397 
-0.4364956053536653 
0 
0 
-1.996927640973692 
0.5442594108899375 
0 
1.370148631313446 
-0.2225326847336049 
-0.03571863600395465 
0 
0.3250945823962369 
1.378128771916038 
0.07544532188280838 
-0.2486107984522785 
-0.154916402506621 
0.6151041010150256 
0.8473780429385636 
1.173981181394305 
-0.298023733448206 
0.01850978379209488 
-0.1904907954923226 
-0.1161291349057578 
0.4243343511358291 
-0.2079199477958622 
0.6089546206800812 
0.1374300618134563 
-0.009592795778623275 
0.9821327901130764 
0.8482305643998924 
0.4746461240542156 
-0.4969135477010009 
-1.268198977736774 
-0.6465227218929239 
0 
1.584055051017024 
0 
0.3836960272039076 
0.009400690430643815 
0 
0.8929920792376759 
0.7691134915486391 
0 
-8.326672684688674e-17 
0 
-0.1442336112171089 
0.5839650953141265 
0.7941423648836381 
0.8147298407584261 
0 
-0.1170821189541344 
0.5963629086717962 
0.3523102134612607 
0 
0.01441893127475634 
0.2369737551724375 
0.9998268331380821 
-0.2666535815886893 
0 
0.5471139200440603 
0 
0.2557888950002759 
0.1067620952359814 
0 
0 
0 
-0.4121460736560981 
0.5210093005654839 
0 
0 
0 
1.171124858851187 
0.001616947182680725 
0 
-0.07326137131793353 
0 
0 
0 
-0.2781841164464893 
-0.2070498725587781 
0.2675553001001784 
0 
-0.4575307263173842 
0.1171917924297173 
-1.387778780781446e-17 
1.653956043283384 
0 
0.03552512778235374 
0.3593200688932116 
0.3046652277128881 
0.1808930647752931 
0.3831410171300449 
1.142378150625398 
0.129733540409343 
0 
0.6836043138718711 
0 
0.9681962692498918 
-0.02558610909567495 
-0.5926315999619179 
0 
2.057418776469364 
0.0219897777532046 
0.1640161161776205 
0.7182480667578899 
0 
0.2765179554914861 
0 
0 
0.3547188967161752 
0.749739141542626 
0.1280049537034445 
0.5985331099071161 
0.188720440236693 
-0.1981836006152341 
0.2236784871793728 
-0.1560570972855392 
0.2795047482042812 
3.816391647148976e-17 
0.1036291268742164 
-0.08799277157695862 
0 
-0.1331270446106388 
0 
-1.285496414795345 
-0.1196172397306526 
-0.4397931007067714 
0 
0 
0 
-0.1497844463511739 
0.2169528421878231 
0 
-0.4867037235271888 
0.1616685824980401 
0.330776155936249 
0.8197101821142843 
0.982419443740389 
-0.02073815396587897 
0.8850974341711784 
0.5725568722599655 
0.1039449588687991 
-0.2483731143975247 
1.130917919761772 
0.9131597014290485 
0.9056708414838442 
0 
0 
0.9578385472850207 
-0.05746035383980508 
0.01624744455107612 
0.5237612551855054 
-1.040834085586084e-17 
0.2966550265442958 
0.7910536444676275 
0 
0.4632831678704405 
1.136527413927704 
0 
0 
0.003690860555794257 
-0.1122757917125513 
0.03663187260573114 
0.03625685670884596 
0.1461978730223834 
0.2039102682299355 
0 
1.627740461266101 
0.4554808707832918 
0 
-0.1360703745768687 
-0.2375259474358136 
0.4681521639852602 
0.2552673190303663 
-0.5861096565582462 
0 
-0.2521334078205287 
0.05677640937186086 
-0.3171967661085814 
0.4916045931490439 
0 
0 
0 
0.3818379474309578 
-0.243149780939923 
0.7050142619083748 
0 
0.2122846533334969 
-0.2083752402265693 
-0.9385516627736108 
-0.07014684817315188 
0.7280535072734652 
-0.00825576005399515 
0 
0.06138437329387521 
1.951850991412079 
0 
0.3508431906839225 
-0.4307312253252051 
0 
1.791122129692314 
0 
0.6454008723773301 
0 
-0.1247334925661818 
-0.6163361317161226 
-0.04211541104458642 
1.399962753096627 
-0.8165859713269464 
-0.2773493757601609 
0.5473777806468956 
0.4668644950344487 
0.7012170736853357 
-0.1536714406752388 
-0.4721530375704834 
0.83566147226972 
0 
-0.06208312122951248 
-0.1824857775274981 
-0.3085301997826326 
0.5550762124412291 
-0.05712806423885682 
-1.397337218471099 
0.7316929046283305 
-0.3600872877963205 
0.3357887086863851 
-0.4967354651956504 
-0.009556367852650571 
0 
0.2679568304018868 
0.6381217525792037 
1.038815009045799 
0.1808930647752931 
-8.326672684688674e-16 
-0.1340179006603827 
6.938893903907228e-18 
0.01056668057340015 
0.1775994665349431 
0.1872023798133849 
0.7907903738528163 
0.7126661222130323 
0.35243222317298 
0.6729483505389617 
1.265138073437741 
-1.22693104196723 
1.296663694142872 
0 
-1.371552876396504 
-0.2129222628994792 
0.5281062582961127 
0 
0.0169896139893949 
0 
0 
-0.02881072077293544 
0 
0 
0.2440470010865021 
-0.2452912336823147 
0.6835606562973584 
0.5826605882201353 
0.7598530643078601 
1.316452951686468 
-0.5262475037039337 
-0.03930197638348356 
-0.1932423305917092 
0.05510115203847493 
0 
0.4631930459983779 
0.3767475473165492 
2.178333638329306 
0 
6.938893903907228e-17 
-0.1499358430927225 
0.2100515963280305 
-0.09609829439672862 
-0.1229604086701085 
0.7224458135319738 
-0.3699958294922113 
-0.3125491526373353 
0 
0 
0.1345446553519624 
-0.154536963018239 
0.504503902027871 
-0.4156523360478191 
-0.2725095372158931 
0.09562565133531041 
0 
0 
0.9091686357190523 
-0.2978970772221138 
1.262239466629425 
-0.1052001904363155 
0.2612487818390082 
0.4452302448789828 
0.5950126377326833 
0.2637303835928214 
0 
0 
0.7920494947683939 
-0.2871375685188085 
2.081668171172169e-17 
-0.4015182681299709 
-0.1352424470085875 
0.07408015217937026 
1.673274424150887 
0.2960101659183414 
0 
0 
-0.5153697127082477 
0.0183350962459821 
-0.07825861120059945 
-0.6760747697519536 
-0.2887346071764502 
0.09057434635382806 
0.4048646703180308 
0 
1.296052650533764 
0 
0 
0 
1.387778780781446e-17 
0.6924577584674495 
0.6378342189952818 
0.4374637297447764 
0 
0.1791503090004894 
0 
0.4647490820087659 
-2.602085213965211e-18 
-0.2800198771098095 
0 
0.505821335130537 
0.1236328703449908 
0 
0.4049149985021908 
-0.3950518138165529 
0.4209229715195365 
-0.6163786750066338 
0 
0.1259790360155628 
-0.4391143130430706 
1.387778780781446e-17 
0.199480654045221 
0.8905407486379161 
0 
0.02859544947514177 
0.9447632809280129 
0 
1.025878199637817 
1.153244922631004 
0.547843370149723 
-3.295974604355933e-17 
0 
0.1302928057570799 
0.1181801298309286 
-0.2247401500570531 
0 
1.387778780781446e-17 
0.1042345796386277 
0.08530113313185171 
1.342181409516453 
0.7734273226507649 
0.1808672175586691 
0 
0.05672293791302145 
0.7775087582112988 
0.2295317664747836 
0.500246870825479 
0.8912325613295052 
-0.169474980104263 
-0.05566042281211936 
0 
0 
0.4681521639852602 
0.1544574855519653 
-0.2831967231982747 
2.508067643551192 
0.6998036348178663 
0.01252421531848695 
-0.00825576005399515 
-0.09506112969442004 
-0.07550622995721973 
-0.2162754329818048 
0.18217379711422 
1.179994222902135 
0 
0.2357593136930636 
0 
0 
-1.387778780781446e-17 
0 
2.050986099833495 
0 
-0.1573896202093373 
0.6936148861251574 
1.354266582317448 
0 
0.1869005273867644 
0 
0.1964608783370694 
0.1913331537253778 
-0.1408574003105753 
0 
0.5670100618987806 
0 
0 
-0.2366962519637258 
2.513106694980209 
0 
0 
-0.3652052512974865 
0.7936394046822629 
-0.08874019954274392 
-0.3406564366367937 
0 
0 
-0.3287401113021782 
5.898059818321144e-17 
-0.01404927925422379 
0.7039109923945064 
0.03194663474934363 
0 
0.7171250689156007 
0 
0 
-1.040834085586084e-17 
0 
1.155163163380807 
-0.4476298828433181 
0.1345096463157641 
-0.1340393843861856 
-0.1968509983171477 
0.2338805403551993 
-0.2059011215896974 
0 
0.3608834869850719 
0.9074019237275933 
0.4172839153521807 
0.02064135493592194 
0.2319349684260776 
0.3523040953058618 
0 
0.1924692790972077 
2.775557561562891e-17 
-0.6407622305010838 
0.05414911722997345 
-0.1206439668648979 
0.1613396890106418 
0 
0.3292277818862785 
0.8819762845256619 
0 
0 
0.6295728884237692 
0.609719455190414 
0.0207082069334184 
0 
0.4395241349234054 
1.444765388643301 
-0.7701387766036786 
3.339342691255354e-17 
0.193471735293651 
0.07676136503545319 
0 
0.08343154218681317 
0.2388906813937168 
1.446169258629999 
0 
1.001997754606937 
6.938893903907228e-17 
0 
-0.1284782119730353 
0 
0 
1.198583397058423 
0.6724087779677362 
0.4467919275684427 
1.164889199767154 
1.040177291929376 
0 
0.02592485476369523 
0.8606795561649391 
-0.3766715111311479 
0 
0 
0 
-0.3343567419908238 
0.2801467352443486 
-0.08401311367411343 
0.1507117021315168 
0.160486102322525 
0 
1.019110680606762 
0 
-0.06003117893902776 
-0.1885350792789272 
0 
-0.1601042266686703 
0.3967372947713498 
0.5249522985661946 
-1.015140084568475 
0 
0.03211797711507702 
0.06222570529528214 
0.1523849030933592 
-0.03398254040781186 
0.09324333975351018 
0.4763965202615821 
-0.1666374544553271 
-0.0006476108863578603 
0.01103797109818887 
-3.469446951953614e-17 
0 
0 
0 
0 
0 
0 
0.2103391298382741 
0 
0.08731176322334415 
0 
0.3723963983751738 
0.7202560219961242 
0 
0.2120172026006188 
0.01908083864886842 
0 
0.09762431593214924 
2.112419238483179 
0 
0 
1.214897991721506 
0.593518289143014 
0.019072420918449 
0.06706454586423966 
0 
-0.4634806162994614 
-0.8003530786277367 
0.1845489171770708 
0 
1.20860348395078 
0.7093110190501669 
-0.2140084672613838 
0.2191568600916126 
-1.720185334190799 
0.8661991695057584 
-0.6747312965700583 
0.813605356162944 
0.09966876627140882 
0.4632831678704406 
0.03607911454682971 
0.534809158461278 
0.1013199796401381 
0.1807762370393776 
-0.5563020600412438 
0.1115565701605875 
0.1053945499864365 
0.7219333313617279 
0.4365906740977938 
0.8008641135812178 
-0.07005170756326995 
0 
0.1739085777559107 
0.1029610167074442 
0 
-0.09480703162111838 
0.1659347507888607 
-0.04953639806399479 
0 
2.183708781507311 
-0.3244295830415753 
0.2192136926260961 
0.4093133227059418 
-0.8015490227271583 
1.199556835458558 
0.9583159683631439 
0 
0.575723008379406 
0.9173044408432802 
0 
0.07638788612043763 
0 
0.01167379864113732 
0.0009893641170028956 
0 
0 
0.5558192863208318 
0.5456697810090108 
0 
0.6140771766008988 
-0.1278601418541085 
0.5610849859921162 
0.006872578750067149 
0.07685042409351359 
0 
0.1360447315938296 
0.770745682211379 
0.9217588640190872 
-0.3032454294037212 
1.582350894735981 
-0.2097117957308752 
0.2406091204238382 
0 
0.05510115203847479 
0.2717157505047046 
0 
1.384068937341885 
-0.1660900519483217 
0 
-0.2553766207930443 
0 
0.4639694548595906 
0.1204314715172774 
0 
0.02733515743938439 
0 
0.004819325361127111 
0 
-0.1861247362364216 
0 
0.06527599363116554 
0.5788229826880668 
0.8714681522255824 
0.2539839928176956 
0.9130799169676332 
0 
0 
-0.5170425555770045 
-1.387778780781446e-17 
0.07638788612043763 
0 
0.5173371032758193 
-0.5612250047132186 
0.820642241808559 
0 
0 
0.3073877015440488 
0.08900813228954391 
0.01559630498680904 
0.2658316072269944 
1.104357993565215 
0 
0.4181165731302863 
0.5182352893096495 
0 
0 
-0.4625740199721561 
0.02517812273726919 
0.01190962959734742 
1.311436797501175 
0 
0.4252528162709009 
-0.2516499796600035 
0 
0.450998102205683 
-0.2402463586424327 
0.2083775195379876 
0 
0.7977416146984244 
-2.081668171172169e-17 
0 
-0.3772184175339014 
-0.1509843668657582 
1.624499778913779 
-2.480654570646834e-16 
0.5143196644052204 
0 
0.3040364280945874 
0.6443382520835816 
0 
-0.483724664006227 
0 
0 
0.3505788546298244 
0 
0 
0 
0 
0.06077274541926876 
0 
0 
0.9620823399562149 
0 
0.2430277651103599 
0.7304991308988356 
0 
0.4370081381191076 
0 
0.1910367822451908 
0.504994277091606 
0.5531025374178309 
0.1236342747176897 
0 
0 
0.1147645807456995 
0.4689830662357407 
0.5588160627791605 
0 
1.202914566734291 
0 
0.9137470801311711 
0.6582816189082422 
0.3679564960922876 
-0.05087652443287496 
0.2003874457306333 
0 
-0.004537434513021608 
1.823702203256683 
-0.155830189790012 
8.815706775618086 
0 
0.7843653881053307 
0 
-0.08796915792167288 
-0.4167057058772536 
0 
-1.246290740047245 
0.3280749471341877 
-0.2743976831611277 
0 
1.265341450823616 
0.3320355650185066 
1.070583773218211 
0.01190962959734742 
0 
0.8465393948285499 
1.979936750331816 
1.734682897952849 
0.1389432463848297 
0.1086687950093016 
0.5899599677020343 
0.09301007675049588 
0.1432709548144123 
-0.3691421178815861 
0.2669455716698361 
0.2011617813132787 
0 
0.1236310260027096 
0 
0 
-0.2176262805884054 
-0.09638604939126769 
0 
0.3959896604001376 
0.5643305502918698 
-0.06363230352434969 
0 
0 
1.062262390378422 
0.3575633117146657 
2.284204821055205 
0.3307460571725458 
-0.2423841700250977 
-0.500321716575624 
1.063220153748662 
0 
0.001628687496878234 
0.05773843766856444 
-0.230394033632719 
0.7693931694573712 
1.735115959985117 
0.1255036536123849 
-0.1663600433773661 
-6.938893903907228e-18 
0 
0.3108448020508468 
-0.06823681816935601 
-0.2441708142734129 
-0.07287074127787355 
2.468772848089638 
0.1067624843385702 
0 
2.376982936530796 
0 
0 
-0.2371504955601018 
-0.1220431563298476 
0.05530629063428395 
-0.111452222585668 
-0.5950483079985103 
1.219201589000073 
1.181245534306616 
0 
0.660496215463324 
0.5759243624480803 
0 
1.237080761364958 
0.4840921829341005 
0.2842016767610467 
0.1256879576605578 
0.1679385479120924 
1.741195360582304 
0.2883085856438762 
0.3457687209204414 
-0.297797951403909 
3.339342691255354e-17 
0.07544417480344578 
0 
0 
0.1538776029986957 
0.04736333181084618 
-1.44350806250412 
1.734723475976807e-18 
0 
0.7009959365053772 
1.636095852416245 
-0.2205125091141958 
0.2716869757292062 
1.523579665453185 
0.1426667475425129 
0 
-0.2783205767073562 
0 
0.5430087545674288 
0.02525994233354332 
-0.4475375116727253 
0.2624708177583311 
0.3091621223168863 
1.110125690163779 
0.05241046956101487 
0 
0.2167561705209075 
-0.5153697127082491 
-0.1698789410230928 
0 
-0.02961336364673314 
-0.3673388132231841 
0 
0.0187610642118259 
-0.2996274274382914 
1.140230504811038 
0.3573761413444242 
0.5102254425268029 
-1.459936660737126 
0.005486386652525663 
0 
0.2128200255799546 
-0.5794825113226917 
0 
0 
0.9655700809841986 
0 
0.09380644592842283 
1.844948096338677 
0.1685734105150659 
0.1457798362773655 
0 
0 
0.01977734646819093 
0.8994675215370933 
0.4617963949882573 
0.7357872194253706 
0.52703355136962 
0 
1.217066598297901 
-0.4828054645028044 
0 
0 
0 
-1.387778780781446e-17 
-0.6677560757506822 
0.02049043516051163 
5.204170427930421e-17 
0.4690175014642108 
0 
2.04676094649967 
0.04488923762021928 
0.2907556907440556 
1.401026468153533 
0.7614792576590168 
0 
0.5933535081398765 
0.2438240972200037 
0.1849984783481075 
0.02043783392849879 
0.2650718350241336 
0 
0.4106266538477601 
0.4559012004220446 
0 
0 
0 
0 
0.470725527624625 
-0.7095233681122389 
0 
-0.391705425728348 
-0.5509898580458609 
-0.01675142310329453 
0 
0 
2.052423858630947 
-1.040834085586084e-17 
1.03254511877879 
0.231155276894883 
2.833487556858756 
0 
0 
2.85281254417341 
0.2764800415680112 
1.808673432855311 
0 
0.1147163471748875 
0 
-0.6119173688340107 
0.01032734741365674 
0 
0.1744837213013093 
0.6459527449465845 
0.7602805171140494 
0.8745463777982492 
1.192909262776248 
0 
0.009957182194224333 
-0.1069516014247774 
0.6242697158828606 
0 
0 
-0.145907776851418 
0.2154546503141978 
0.001621531732860626 
0 
0 
0.03595385653494639 
-0.03864347232412774 
-0.02766978347963834 
0.8239788604082185 
0.08432597769673714 
0.07416981077955841 
0.04547189061676261 
0 
1.36415931929124 
0 
-0.1910247384821582 
1.195241826270693 
0 
0.587911682353308 
0 
-0.4451782563349908 
0 
-0.5204818266579458 
1.116195420523887 
0 
-0.1742299426953176 
0 
0.7019016793523337 
-0.2879509679837058 
0.8173251295157171 
0.9787538557574668 
0.2313076208778072 
0.5587465860422091 
0.1341664516578132 
3.339342691255354e-17 
0.30738770154405 
0 
-0.1987493784017474 
-0.08948399700969989 
-0.2507286926752728 
2.403766771965781 
0 
0.4191512492999376 
-0.030198617902298 
0 
0.08865407567121605 
-0.2544038517255053 
0 
-1.092023097806366 
0.4248292536754335 
0 
0.4196678263738494 
-0.07970296901022386 
0.3793805859037753 
0.2291560636853552 
0.002149842490867135 
-0.256953188447715 
0.1035145813157705 
0.02021737059480113 
0 
1.465311886194329 
0 
0.4162249814457368 
0 
0.5330525994466191 
0.5684074983820672 
1.410019676303414 
-0.305774717578601 
2.820767831952288 
0 
0 
-0.2333920642052481 
0.1357828058311349 
-0.777699266976264 
-1.030146731661036 
-0.2724211274572531 
0 
-0.007489679783378986 
0 
0.2517919993180414 
-0.3659238439966411 
-0.1585129583627393 
0.1273830061298194 
0 
1.473718729768714 
0.5120780262681335 
1.797552547502838 
0.8256425694961929 
0.1068396377925097 
0 
-0.7707443067121561 
0.2821246771944009 
0 
-0.08870156057962163 
0.4695526056819387 
1.203237548215185 
-0.2774520052023015 
0.1713083536504976 
1.204853083024396 
-0.5146670524657693 
0 
0.7153982684707976 
-0.5987790047212197 
0.01784020312300034 
0 
0.3042139512099071 
-0.348852753569229 
0.05119462879007197 
0.9450133161258705 
-0.1232978554466089 
-0.8573687614037326 
0.008014280691065788 
-0.07213753992125312 
0.2564562787734707 
0 
0 
4.163336342344337e-17 
0.2858556310016702 
0.1874312129742564 
0 
0.8972603649355924 
1.121577240930478 
0 
-1.760393496789538 
-0.3533056347030917 
0 
-0.1596120716156295 
0.08553680368330839 
0.3695662376258607 
0 
0 
0.1136239362678797 
0 
-1.727417047603987 
0.1264727961675731 
0 
0 
1.741283635686215 
0.1152963570633054 
-0.2758861855508323 
0 
0.8026386106283055 
1.05128549767377 
0 
0.3468179611247879 
0 
0.455070618110909 
1.265728976379093 
1.800952207190432 
-0.0891568429328389 
1.022126223000669 
0.5840024385611507 
0.6807872548899404 
0.1070854397193463 
0 
0.05940843316140589 
0 
0.3099281241375891 
0 
0.06065735116881001 
-0.1054727268940667 
0.4653968543313468 
0.6492703283077973 
1.25060882872639 
-0.04200465878172876 
0.1409555473920141 
0 
-0.2455525490371048 
0 
0 
0 
-0.2491537450004522 
-0.05892434751602028 
-0.3505077361088195 
3.3057814990938 
1.184672257782599 
-0.05945862782566823 
1.729575256266492 
6.938893903907228e-18 
0.04688783117551447 
0.3381382258802454 
-0.1137674718333287 
-0.3693466473239072 
0.2759469996904927 
0.0202424660427155 
1.105224020223902 
-0.03574889696435385 
0 
1.125187584687591 
-0.03970596725444164 
0.9861234078145492 
-0.09156215865351128 
0 
-0.1357404236971071 
0.004729526069320629 
0 
1.001695031571548 
0.6130592793846852 
1.233074586075731 
0 
-0.3254340796077841 
-0.1755735571726208 
1.644283441393672 
0.5686219689284768 
0 
-0.2214579398125046 
-0.0965416418590508 
0 
2.074961678905901 
-0.05039813903369079 
1.467632257055173 
0 
0 
1.64133450137473 
0.919974525598335 
0.02066563379546703 
0.2238579300940568 
-0.5663771567133373 
-0.5146670524657693 
0 
0 
-0.377300324159172 
0.3022572052724309 
0.994616161362303 
0.3549283055767001 
0 
0.09158114100162308 
2.565968445760602 
0.723504352063321 
0 
0.1642086782532053 
0 
0.3653782351727362 
0 
0.3802615604629375 
0 
0 
0 
0.2004831210284438 
0.4163089182748293 
1.387778780781446e-17 
-1.387778780781446e-17 
-0.5026621478906081 
0 
0.2756790283007859 
0.1235453726814832 
-0.6244122666713605 
0.1183156675027721 
0 
-0.370065399512926 
0.1319035654803643 
-0.2463604041066674 
0.5758941024245359 
0 
-0.09059753322543185 
-0.2305389772818591 
0 
0 
-0.219931776698804 
0.4703327943853396 
-0.7869757131587756 
0.8201025840400556 
1.434503464153352 
0 
0.2690146428820739 
0.05754636433221949 
0.7428732813468333 
0.317565759108424 
0.05192798678068269 
1.2246694191973 
0 
0.1508498214033774 
0.3124047700210585 
0.9999174986278589 
1.815927479495701 
-1.387778780781446e-17 
-0.04502891008378938 
0 
0.04445192253943714 
0 
-0.05957484326519266 
0 
0.07544265753274106 
0 
0.006191577770359906 
-0.1967677867598531 
0.004982495187599908 
0.1361430014390528 
0.7229048517860487 
-0.1717315316030501 
0.4034877362185679 
-0.3539848727664509 
0.8567944667150685 
0 
-0.1509766624073604 
1.258801305575319 
-0.5919242356042101 
-0.73045099258707 
0.8410532549469031 
0.1507819637188562 
0.2101162908321258 
0.3367809130646518 
-0.162362243276348 
1.14911584134407 
0.2591967178333525 
0 
0 
0.2611851134385581 
0.3254070957082055 
0 
0.08629771942742567 
0.01299853963058253 
0.5933356662546626 
0 
0 
-0.1391889383371842 
1.303571448901727 
-0.5228591106407766 
0 
-1.31163474986437 
0.9553747318259788 
-0.3937166374106518 
0.6801923776907701 
0.4199491529360775 
0.611707792596246 
0.6638648997027187 
0 
1.570238190342191 
0 
0.02486051402361611 
0.4572754338265096 
0.3605941741181692 
0.610507246776542 
-0.02718139306815666 
0 
3.339342691255354e-17 
0.5172737482804889 
0.4218633659344919 
0 
1.241327690418354 
0.6699398516320224 
0 
0 
0.4898742026572374 
0 
0.1265329376766056 
-0.4003568456631832 
0.2539839928176957 
-0.2661700737570156 
-1.387778780781446e-17 
0.6478053766579275 
-0.1127787154939427 
1.223424598468603 
0.5020206494950955 
0 
1.780395225983368 
0.6762460818729749 
0 
0.5566562694621879 
0.08439047642068623 
0 
1.201049804643045 
0 
0.01732549632256267 
0.3227196459024411 
-1.103819383411777 
0.03923335423042894 
0.04931243073917074 
0.1372416021151324 
0.349933111188903 
0.8693651502902308 
-0.7173345064274642 
0.646855770979377 
0 
0 
-0.03640129323921057 
2.210399936544107 
-1.08228296174498 
0 
6.938893903907228e-18 
0.04119135062705354 
0.04005615629147266 
-0.992468487002808 
0.1062518774689987 
0.3323891295964707 
0.02653535854676854 
6.245004513516506e-17 
0.8467420159523374 
0.4616653985970156 
0.5268126488610126 
1.015347640538185 
0.02064753405870547 
0.04248938882930411 
0.3246398060831704 
-0.1540749947458431 
0 
0.9667513660296794 
0.003765159357327052 
0 
-0.09476826177519693 
0.3949295256909952 
1.011815339512888 
0 
1.217238594573484 
-0.001012562654316068 
-1.389351839462348 
0.6148660498165417 
-0.4395658834207793 
-0.3322987063113706 
-2.168404344971009e-18 
0.1347113741213829 
0.1050370213321668 
0.84174191401011 
0.06557345034404255 
0 
2.453793042248763 
-1.34878770003709 
0.80260717821381 
1.136264994639861 
0.858478489086012 
0.2009714508789219 
0.0726262921436593 
0.01657647181430378 
-0.3632439388451415 
-0.4775245148669575 
0 
0.1079440546788229 
-1.576953279949238 
0.04475326800299986 
0 
0.1182672297637828 
0 
0.1699561442457984 
1.238943561829883 
-0.1662199625411721 
0.6759843412429879 
1.074100492610222 
0.6637788323178585 
0 
1.175971914090076 
0 
0.8004571040300114 
0.008076552990451652 
0.2692141598919449 
0 
0.4898274415477356 
0.3467097817452965 
0.6550430502425615 
0.1233855169181351 
-4.163336342344337e-17 
0 
0 
0.05257705041819272 
0 
-0.07714519781847 
0.01653762201289524 
0 
0.2073449166694448 
-0.8268668291252997 
0.1497219555531924 
-0.1831826217697617 
0 
2.355946162633679 
-0.04571019732501747 
0.02064135493592194 
1.244590255920467 
0.9684977572811304 
0 
-0.1913169709035777 
0.1934717352936511 
-0.3535533235745871 
0.06153185689243174 
-0.2247756462039037 
0.1464476215873014 
0 
0 
0.05770443416436267 
0.02184642206121678 
0.7505647281343861 
0 
0 
0.2592240470634244 
0 
0 
0 
0 
0 
0.3030498019209401 
-0.7902677160324761 
0.02912620043720355 
1.0703297632086 
0.293268292969703 
0.2969182439071494 
0.6516872616426569 
0.2692602929588002 
-0.1680147465273917 
0.4419266185921 
0.04048383851036585 
0 
0.7059145121814051 
-0.4930071706503104 
-0.1811271971398055 
-0.6606690776150188 
0.005490868675375686 
-0.06158088927346192 
-0.28655327246604 
0.0038690821307793 
0.2700909908157131 
-0.1570696824481492 
-0.003372937287823133 
0.927976587529614 
-0.05643990013781872 
0 
0 
-0.4271901026295259 
-0.5772480754612547 
-1.501918851070236 
-1.338848032232022 
-0.1267858406667703 
0 
-0.2700562799517385 
0.8435012351825357 
0.5818770805082324 
0.7545163212266109 
1.816488049384385 
0.07793112098378241 
0 
-0.02094427640048124 
0 
-0.1735168495803593 
0 
0.1041877858416628 
-0.3204747376429271 
0.06732029670543085 
-0.2040868780114569 
0 
0.4330726880640869 
0.4167482098215443 
0 
0 
0 
0.2577002498778467 
2.551929257963506 
-0.1315046297220344 
-0.1008907704544253 
0 
0 
0 
-0.1664424750425094 
-2.775557561562891e-17 
-0.07780371508694366 
0.1043547906507604 
1.414826808070248 
0.7029190358246276 
0 
0.06250540250867076 
1.50035225164331 
-0.2430939017914028 
3.642919299551295e-17 
-0.3670981047523274 
0.0866804453368841 
-0.4729789285448548 
0.2213261971232842 
0 
0.4622720322608229 
0.2641033222265907 
0.4410507471452774 
0 
0 
0 
0 
0 
-0.4635829372695291 
0.04766133006143514 
0.3995030884955587 
0.4935960908170337 
-0.14945553527143 
0 
0.4828459581469653 
0.1906940404670638 
-0.1250106820429326 
0 
-0.7298689348670799 
0.01186215190824458 
-0.5076012210430418 
0 
-0.3653305566595563 
-0.6951477672160353 
0 
0 
0.4842331154449793 
0 
0.4791852918694677 
0.0538063297126732 
0.3118736897008224 
0.7505937778252871 
1.329086173973425 
0.9846760765010948 
-9.367506770274758e-17 
0.08182494461479028 
0.3374403616540977 
0.8428942478158395 
0.5423710950107863 
0 
0.08488762127834816 
-0.5006291978081261 
-4.163336342344337e-17 
0.1631888046892726 
0.6394727743916905 
0 
0.6767076879784453 
3.01344160945873 
-0.3201143717052559 
6.938893903907228e-18 
0.9763710298772301 
0.7370224118163957 
0 
0.1872023798133848 
-0.2246380597294685 
0.1684382308199754 
0.003989624298704445 
0.5694480005291827 
0 
0.01974530328931138 
0.7830561347417518 
0.5152938719797121 
0.1229569151751928 
-0.2184842753838774 
0.2934728804216897 
-2.081668171172169e-17 
0.8122209451008041 
-0.6129425773636369 
-1.387778780781446e-17 
-0.5018481698189534 
0 
0.3484944522177876 
-0.1454863182670022 
1.125074903193491 
0.748468624250504 
0.7058040239752492 
0 
-0.210186367058085 
0.04889975537710788 
1.944283447829402 
0 
-0.3992942767700234 
0 
1.108340646626584 
1.358191166737897 
0.541242829017092 
0 
1.120338881188723 
0 
0 
0 
-0.3765874694857959 
0.649764391578497 
0 
0.02364766095473596 
-0.2953863663848513 
0.4505174259872885 
0.3012467594749683 
0.2590088586977663 
0.726769198038654 
1.462787084316247 
-0.02795020224557083 
0.4946588621350682 
0.1772112627721984 
0 
-0.2451918184230294 
1.192838767922324 
0.1407978909248608 
-0.360365796828633 
0.5896798440907453 
0.06406720925572476 
0 
1.508061189889428 
0.002881237104992643 
0 
1.353593840539895 
2.775557561562891e-17 
1.497325161700634 
0 
1.0191182082891 
-3.469446951953614e-18 
0.6249294596241789 
0 
0 
0.1109233506860804 
-0.2186517029750731 
0.352049772270686 
0.8494770687121351 
-0.02099336537009122 
-0.4199517527849244 
0.3952392708317971 
1.106209475629167 
0.6162025569730832 
-0.3506062997031757 
-0.63537708315885 
0.01797387187396721 
-0.2069818859346295 
0.1046353025904611 
0 
0 
1.369271357603386 
0 
0.7802211292572503 
0.02196620584279575 
0 
0.4216137004153401 
-0.01254454389752992 
0.2658497771712485 
0 
1.050434484160057 
0.3420074356925209 
0.08799921645082368 
0 
0.3935941438297377 
1.590082724220713 
1.387778780781446e-17 
0.09206490790571599 
-0.2082843388631668 
0.9520191657783559 
-0.161228198506684 
0.4367047575715567 
0 
0 
0.7101707282669566 
-0.4917207060226945 
0 
0.6504308777923129 
-0.1920957988739465 
0.2480254277000992 
0.1284751873633073 
0 
0.6232141926592557 
0.09348419485875124 
0.7190996318732589 
0.05510115203847495 
0 
0 
0.02699957729499901 
1.754039128160178 
0.7488971518405915 
0.3620486037735989 
0 
0 
0.1304338045910018 
-0.4895614166668237 
-0.2487604886441263 
-0.04793616401660433 
0.3547469260102031 
0.07532152294836104 
1.161107351345317 
0.9486936698066748 
0.412436986472191 
0.3749264442290667 
0.322493699323406 
-0.3407919816432275 
0.9653326585707823 
0 
-0.1588440560386126 
0 
-0.2621469965443102 
-0.5466511964105644 
0.7047176350825878 
0 
0.0111101809106304 
-0.1960020696036334 
-0.4365696599150697 
0 
0.3923035297120169 
-0.6051875003278367 
0.2432212881520445 
1.494968712772203 
0.04842904753854761 
1.462825486350994 
0 
0 
0.2384490603112901 
1.602939574345835 
0 
0.1402481512396431 
0.5712149820673803 
0 
0.2632534698336403 
0.02412918160605527 
0.4662744592718538 
0.03625685670884608 
0 
2.775557561562891e-17 
1.089395320515178 
0.1437327039886873 
0 
-0.09302444484503113 
0.9706218134846968 
0.7936787464879039 
-3.816391647148976e-17 
0.3136118797483416 
0.1616685824980401 
0.2641415386323305 
-0.2115132747094335 
0.6349140302358172 
-0.2055897079414375 
0 
-0.03769322715785677 
0 
-0.9205129725144753 
-0.06824998787488967 
0 
0.005459907453953444 
1.044130314606193 
0.01537271137562735 
1.290730218373334 
1.443335851696785 
0.2451817468477766 
0 
0 
0 
-0.03452327009448496 
0 
-0.222961730633601 
0.02615140005282132 
0.02788522083907868 
0.06322061627278072 
0.07288470167593311 
-1.831164305557849 
1.331109437277697 
0 
1.435145944722601 
1.184870750004114 
1.359550706700352 
0.4811906450087315 
3.01417937806539 
1.369271357603386 
0.1456496738833189 
0.5660948301405714 
0.6336861210446344 
1.136832332799647 
0.05399766928273958 
0.7578670419839274 
0.598939730784312 
0.620243324158219 
-0.3916485674285244 
0.4306060591320372 
-0.0755857815305967 
-1.20424622899373 
0.3848432360734949 
0.2818086273190462 
0.1643299269343013 
0 
-1.466824586545453 
-0.8351053241534636 
-0.02042434715815407 
0.4915975366824625 
0.003765159357327052 
-0.2071586288679232 
-0.9016841668631614 
2.262605040726869 
-0.2784827898917439 
1.734723475976807e-17 
0 
-0.4828054645028044 
0 
-0.5766040884096365 
-0.1350029611232128 
-0.4624140076049021 
0.8566157591201787 
0 
0.654023740827562 
0.0003162493788241594 
0 
1.270542628911148 
-0.3510039991740431 
0.473450853786644 
0.7596112585390429 
1.00497053311593 
0.3732229350852715 
0.05033407683185653 
0.09862186371454562 
0.1990034507922168 
-0.6037407133919396 
0.442362863678153 
0.9464916418307017 
1.068275482947875 
0 
-0.2133864391491418 
0.4733886663773612 
0.4691388340185441 
0.5922642654282037 
0.1188483152139956 
0.3336300537743737 
0.07466733546443724 
0 
-0.08306139223423277 
0 
-0.4087482915135228 
0.2333307105914031 
-0.8116469596237805 
1.373176313505587 
-0.3985917856172175 
1.359238251406533 
-0.7938877135705766 
0.506388062958682 
0 
0.4834083164271439 
-0.429650348371715 
-0.1898064691938438 
-0.2221944086538889 
0.2375962224398072 
-1.086722140722014 
0.07653299229761139 
-0.1788072349302153 
1.86161765322189 
0.2558165867846666 
0.3264098302799384 
0.2821156153406716 
0.4150198106711541 
0 
0.6152328173919346 
-0.1030852491740509 
0 
0.004966578404340144 
0.3776596854856406 
1.079255138099252 
0.5828531595144055 
-0.6233800837914466 
0.7913106476140103 
-0.2012387694720856 
1.061968427281383 
-0.124327755379485 
0.7408541321804757 
0.7932394496765102 
0.7404010534363876 
0.4466226218038863 
0.1038029248443631 
0 
0.1952468283883926 
0.3367809130646518 
0.5862455114734931 
0.8664582678392736 
0.03116968640881948 
0.1533379690981275 
0.4715696834182387 
-0.3219275012771327 
-0.02396565901538458 
0.0708165408273586 
0.08344328994655287 
-0.4306328975039453 
0 
-0.3399783272904447 
1.956911471430261 
0 
0.1277691408259061 
0.4146468326863 
0.5226332681448279 
0 
0.1535051490368449 
0.0796889556814895 
2.007591490901933 
-0.1346125886655473 
1.265790659196602 
0.9290910165406743 
0 
0.5664939037446168 
0.173213276036845 
-0.2454071499063395 
0.1265682744637796 
0.2968044248213231 
0.9171200369513095 
1.722909333782058 
0 
0 
0.03189137025488395 
0 
0.07264491594805733 
-0.03571863600395465 
0.02473960658151552 
4.535391221404399 
-0.005738272130709689 
-0.2929551084467985 
0.0002417968303089048 
-0.2942486126502913 
0.1606382843929524 
0 
1.734723475976807e-18 
0.09301007675049588 
0.3479421382414659 
-0.03815114151027907 
0.9518385661555758 
0 
0.5175704255205096 
0.5871768149957404 
-0.3948903130562518 
0.2384490603112906 
0 
0.005367594212312046 
0.6386457399933145 
0 
0.2761202823191101 
0 
0 
0 
-1.138928302438119 
1.285098876715822 
0.2195769999081713 
3.339342691255354e-17 
0.4435090794937382 
0 
0.5050827737652885 
0.4643794353329768 
1.119865766530144 
0.7589030597428132 
0 
0.4336017675342912 
0 
0 
0.007533091326904747 
-0.12989184806265 
1.878418932404308 
0 
0 
0 
0.2451817468477766 
2.085894880040137 
0 
-0.2830035779072761 
0 
2.284470676451632 
0.4343028480328843 
1.469600558457465 
-0.5100040734530875 
0.3468918937392625 
0.7960621074134575 
-0.5920932437012071 
-0.9844613753069356 
0.01964298549626957 
0.5278677364205114 
1.710791538309607 
0 
3.469446951953614e-18 
0.7108654361292357 
0.054286009173212 
-0.1205783072276383 
1.111133606295249 
0.1136841337829395 
0 
0 
0 
0 
0 
0.003301845295737183 
-2.1876331885501 
0 
0.1206695772634352 
0 
0.9507463051891328 
0.1202865827001914 
-0.2647892785442286 
0.3390835970700489 
0 
0.08838818365073228 
0 
1.312541116269079 
-0.2980942973627295 
3.469446951953614e-17 
0 
0.6431518062516769 
0.2479817650724896 
0.656306827874617 
1.338851453619204 
-0.02826252463335434 
0.6975999788276012 
1.273554896432338 
0.1028534858279307 
0.1067620952359814 
0.1275290537340596 
-0.1302664783383444 
-0.1284373027415783 
-0.635924347233398 
-0.5648900905604243 
-0.6719712064301753 
-0.03727678019213113 
-0.0651462371775621 
0.5403932519127008 
0 
0.6824686937503448 
-0.125148811438951 
0.1758921043418085 
0.6919347028197934 
-0.2370840545049999 
-0.1859110547782441 
-0.04718515110119209 
0 
-1.387778780781446e-17 
0 
-0.1863330850626279 
0.8985556886311442 
0.2977959280846995 
-1.387778780781446e-17 
0.6574941901626833 
0 
0.5614502513233633 
2.235241635678178 
0.5922386209095361 
0.4362078521582527 
0.1527202371612478 
0.01990642831333274 
0.4650887888998612 
0.9672337924278707 
-0.1118563639580586 
0.006567168569557354 
0 
0.5034605322411041 
0 
0.828421748831353 
-0.2352047217804 
0.01110714192311886 
0 
0.1710176498146824 
3.165586901365436 
0 
0.9619927496194688 
-1.095212096178489 
0.06853184360128381 
0 
0.05295239792436767 
-0.1935558389396254 
0 
0.3184049461395904 
0.1695273369195968 
0 
0.8855186792975087 
-0.2639384523596319 
-0.0941426771426509 
0.8424179157383773 
1.31625284864121 
0 
-0.6037407133919396 
1.387778780781446e-17 
0.2801783875222642 
0 
0.637215105284151 
0.01258598916040769 
0.4768849864122976 
-0.4300146859270281 
0.09831874290088136 
0 
0.03380233185819072 
1.387778780781446e-17 
0.9805951233518546 
0.4154532733268539 
0 
0 
0.9939374715033196 
0.03775993202562056 
-0.4388174862915056 
0.001058745609151398 
-0.210451389747162 
0 
0.082887387245171 
1.387778780781446e-17 
-0.0226175308874334 
0.5560795013081447 
0.1817641813603133 
-0.02111403864938646 
-0.06398459600829655 
2.453793042248761 
0.5240188211076812 
1.259424562682878 
-2.775557561562891e-17 
0.3188551033666539 
2.376982936530796 
0.7576038341065739 
0.5055363650206686 
0 
0.7675249284228685 
0 
0.4128622128398922 
0 
0.4231490209492492 
1.041458206493116 
0 
0.1360447315938296 
-0.3504646582591521 
0.5358077691798476 
-0.3003224547734589 
2.85016643457706 
0 
-0.1506112975705589 
-0.03571863600395465 
0 
0 
0 
0 
0.2480850445435703 
-1.785510813133832 
0.8728545735916623 
0.8360301631437953 
0.04483080750814295 
0.6263373265200558 
0 
1.878876775692607 
-0.3136440490608016 
0.2102921657716676 
0 
0 
0 
0.2624052550596898 
-0.01752347342168004 
0.2046407437966521 
-0.02461613961082003 
-0.5944963062298647 
0 
-0.1200657386206166 
-0.3910548886371353 
0 
-0.05615301274993859 
-0.1309464420087157 
0.9757910992557368 
-0.2445482773077767 
0.3283051031730475 
0.02592485476369523 
0 
0.4024867949889581 
0.7587030410590768 
0.5795204897519515 
0.5614502513233633 
0 
0.02184642206121689 
0 
0.2031847416357902 
0 
0.07811034926906738 
-0.3069955288517222 
0.4367476853430037 
0 
0.4437554963696777 
0 
0.3494226065809927 
-0.3219275012771327 
0 
0 
0.7735696901569489 
-0.3877957314015485 
0.1627890183395762 
0 
0.00345708307370674 
0 
0.2357593136930636 
-0.3207045179216316 
-0.3104993879106313 
0.003224407135962282 
-0.07665005390236213 
0.6266438206186694 
0 
0.03055313602665147 
0 
0.913462247837236 
0 
0.1526171107016441 
0 
0 
0 
0.578760376330079 
-0.0670568437793303 
0.66208668429379 
-0.01533258035587837 
0.02674453764290645 
0.5458161319363752 
-0.2674921420259988 
0.3653284362176228 
0.3166217862581644 
0 
0.5264178444798828 
-3.469446951953614e-17 
0.4930101159579091 
0.1109048366598826 
0.1182040315777773 
0.8766173696842599 
0.002862589936404628 
0.6272627243379434 
-0.06564092053165603 
0 
0 
0 
-1.914877343447008 
-0.03571863600395465 
0 
0.02944180404720002 
0.2705438699421276 
0 
0.1672905767956236 
0 
0.3282661563551166 
1.387778780781446e-17 
0.4154201477494623 
0 
-1.387778780781446e-17 
-0.2882508203056307 
0 
0.5915513749274012 
0 
0.8047755347533212 
0 
1.228084834502682 
0.3043044237001257 
1.823217966966232 
0 
1.233877959489399 
1.740138903106743 
0.6291158422208347 
-0.1270861257679311 
0.0808453301565849 
-0.1341893918960438 
-0.295688056502687 
0 
0.01814888924533697 
0 
-0.4828901526943585 
-0.2070915076469018 
-0.2929803683953337 
-3.469446951953614e-18 
0.2957273164992403 
0.6589141106690903 
0.209756338664399 
0 
1.114237759990668 
0.6537304389490644 
0.4350880775283426 
0.1182940234616827 
0 
-0.0477910444254179 
-0.3560722962361001 
0 
0.3923035297120169 
0.06071741843470727 
0.3971529687605276 
-0.2616605365374398 
0.01794852657638931 
0.4570153135582142 
0.4009717589072785 
0 
0 
-0.1861048302734689 
0 
0 
0.3182997297373104 
0 
-0.07869671127825663 
0.2530363188337394 
-0.3088895268417075 
0.07412468655594649 
0.6139747580636209 
0 
0 
0.2815237307039827 
-0.1799206339828721 
0.5871768149957404 
1.432083279114612 
0.1314704503118855 
0.0133204683896621 
0.1388750438157081 
0.006283708065638771 
-0.684570981998318 
0 
0 
-0.01177114687111208 
0.2598508705703799 
1.010908447950755 
3.469446951953614e-18 
-0.1058316763710969 
0.914657687329969 
0.5306467539090918 
0.2897568151304197 
0.2943224986263802 
0.06487409556165552 
0.1814694244868674 
1.408586989239393 
1.91163345775287 
0 
0 
0.7936148071303158 
1.254061517467241 
0.04529407152483599 
0.4912017272386811 
0.06462687546400719 
0 
-0.0001399272077248701 
0.5889753667630001 
0.4224044659938742 
0.6567335440246098 
0 
0 
0 
-0.5346638507823972 
-0.7321680961284009 
0 
0 
0.3165015207025478 
0.02592485476369523 
0 
-0.0593460853980966 
0 
-0.07367353659603473 
1.293895628696731 
0.557383240837622 
-0.2858335798178311 
0 
-0.6142163106701427 
0.4300648516016741 
0.236405544460753 
-9.020562075079397e-17 
0.949466769493476 
0.1848210000793646 
0.0339677348384848 
-0.6519404116457421 
0 
0 
-0.0182937579491696 
-0.04267455900478988 
0.6740502966378824 
0.2990930496858379 
0 
-0.3094524428583093 
0.1737352719408804 
0 
0.5387386131156554 
-3.469446951953614e-18 
-0.5578167131915237 
0 
0 
-0.1319724061945558 
-0.05845980611366368 
0 
0.4618763358427776 
0.3120139303663877 
0.6762460818729752 
0 
-0.7510272990297976 
0.1250849952822488 
1.625292285233346 
0 
0 
-0.01164828926629737 
0.5501656274273378 
0.2511369560467844 
0 
-0.4361783455704178 
0.9658418148555443 
0.04483080750814292 
0.7576679245126966 
0 
0.02566286116785357 
0.02444555174928187 
-0.7597031213289394 
0 
0 
0.08557477217370732 
0 
0.007443401372762933 
0 
0 
0 
0.9330870545147864 
0.3557449870254681 
3.469446951953614e-18 
0.9153422656780612 
0 
-0.05648694221795958 
0.5538390584167935 
0 
-0.1794167627360301 
0 
0 
-0.07037716760193218 
0 
1.278179894861255 
0.826204797403898 
0 
0.7116291028343993 
0.278895961839817 
0.1141947234319183 
0 
-0.6017106200710955 
2.080457448968917 
0.9088271464832652 
0.1842798919936214 
0.101810454906021 
0.284255972424866 
1.227178303769071 
-0.3093390554464684 
0.05459956179188472 
5.551115123125783e-17 
0.6056953491970629 
0 
1.387778780781446e-17 
0.1815292114575301 
0.02414112400170657 
2.642887327039449 
0.1738441880833663 
1.991775653528414 
0.09554003936096822 
-0.03183235005376035 
-0.8447866828010221 
0.3232260046820337 
0.00558255351744229 
-0.0964458381180015 
0 
0 
0.2008160464427453 
0.6763644503041913 
1.503999319952507 
-0.1629264230332821 
0.07126561908029699 
0.3855949745841865 
3.221410257782396 
0.1746785210868051 
0.7389668676848739 
0.3108448020508464 
0 
0 
-4.85722573273506e-17 
-0.4750305034202814 
0 
0.3314130821255838 
-0.1284310303092066 
-0.005479176618661066 
0.01497853887258776 
-0.1128143926643485 
0 
0 
0.1700664729847927 
0.002264452036808103 
0.9049937165974156 
0.2468274264408731 
0 
1.734723475976807e-17 
0.009865239715822632 
0 
1.730505844608463 
0.02729270967204542 
0.3828538972677729 
-0.2809978052243356 
0.3604988675151378 
1.05049218465502 
-3.469446951953614e-17 
0 
-0.1398012307666839 
0.7119133320607607 
0.6385966780627446 
0 
-0.2267038736056749 
0.766517331982378 
0.6612336489807886 
0.8707256373835878 
0.7935842178380912 
0.3538572024035404 
1.010168995475586 
0.05812531167221104 
0 
-0.4975924308735804 
0 
1.32266652126763 
-0.05259385138676797 
0 
-0.04989534378006355 
0.4461956304326142 
0 
0 
0.3369189042536225 
0.6683990584551697 
1.220833651670165 
0.8215754569360495 
0.3660851929798506 
-0.6431019572928676 
0 
0.7771618669408628 
0 
0.8248999911361178 
-0.02141155638755575 
0.1078299672107769 
0 
0 
0.4782168118091291 
-0.003991863426321685 
0.4746295200481987 
9.71445146547012e-17 
0.7612620556316251 
-0.05624384077970995 
0.6486018753557987 
0.184777284062293 
0.1570674732176455 
0 
0.03148310632977695 
1.164010045098954 
0.1141247922503552 
0 
1.395505370347052 
0.1085230746242523 
0.5274427154803101 
0 
0 
0 
0 
1.769251934294908 
0 
0 
0.5857695403628729 
0.03459589133640037 
-0.02272753313608102 
-0.04627608723661446 
0 
0.3893475753849793 
0.3511875997041928 
1.262456439606964 
-1.861264056588573 
0.7859781638186112 
-0.3067700175671865 
0 
1.376059845213002 
-0.6218188807146271 
0.03799994341013041 
0.1533379690981277 
0.119134505883037 
-0.08289892330324038 
0.5424081554034139 
0.160891895669345 
0.3847091295357868 
1.037220769181955 
0.3883962729328455 
-0.5421118885785177 
0 
0.3649191569350146 
0 
1.462809082501911 
0.3026613854786388 
1.161088887671321 
0 
-0.2020766263691437 
0.8695187064681491 
1.126560717753185 
-1.199625261679523 
1.514955082818784 
0 
0.1000337921643499 
0.0006255178851450986 
0.2093910539905973 
0.9417864499020295 
0 
-1.387778780781446e-17 
-0.05224315816120939 
2.775557561562891e-17 
-0.2386413185211207 
0.9126919777723619 
-2.775557561562891e-17 
0.7637247030339122 
0 
0 
1.734723475976807e-18 
-0.2792748458498074 
1.17744503837331 
0 
0 
0.06028829936989875 
-0.1654823512954942 
1.010246979984317 
1.094214897511609 
0.4334631940054385 
0.9060390102720624 
1.578813394125387 
0.9810028731615867 
-0.2479277048175722 
0 
0.7439797726451246 
0.3529357815144216 
0.2310838701687087 
0 
0.6738400333501977 
0.2667884654748834 
-1.131653300958519 
-0.4104903695831323 
0.2751582208456163 
-0.5228591106407764 
0.06138437329387518 
0 
0.746667959964304 
0.3657326081786931 
0 
3.044383217004408 
0 
0.1816458743088118 
0.3354478506635225 
0.1998550230619855 
0.4219244777132312 
0.04336959151473528 
0.3229351242247031 
1.000208577330307 
0 
-0.3016894397918699 
0.3263041965978357 
-0.1202809461497571 
0 
0 
0 
0 
-0.2818016374860057 
0.5920512555168146 
0 
1.744123971177965 
1.104229894993759 
0 
0 
0 
0.7018082409093179 
-0.1146139683754366 
-0.2760805529357795 
0 
0.2452990724993426 
0 
0.7122814917724459 
0.5816183992293263 
3.469446951953614e-18 
0.130059073559128 
0 
1.526824350172327 
1.169609924461356 
0.5120604750296773 
1.706553506743163 
6.938893903907228e-18 
1.311103171305113 
0 
0.4648376254180914 
0 
0.706768649814682 
0 
2.222465970965914 
0 
-0.3152362289373252 
0.6998094735557546 
0.02388298362548148 
-0.1985029365834522 
0 
-0.4711677151604122 
0 
0 
-0.07020591078046873 
1.034679265363038 
0 
3.045639317787965 
0.5143196644052205 
0 
0 
0.03338162834522423 
0.3312209840359697 
0 
0.3244588202728628 
1.233813202524554 
0.001853409933203028 
0.3380766871763904 
0.05221419813293283 
0.2723409622154532 
0 
-0.2834309653392562 
4.163336342344337e-17 
-0.2536761469405346 
-0.3377027446692448 
1.552213551128234 
0.1640605129789316 
0 
-0.3592153224030911 
0.08528790466562047 
-1.259798501744774 
0 
0 
-0.2220908803130472 
0 
0.5933843917984686 
1.903194860125161 
0 
-0.2200493694046227 
0.2667461549216379 
-0.1861891881481278 
0.7971675691365198 
-0.3597237527160069 
0.32144684241818 
2.046973701652632e-16 
0 
0.9217544505243023 
-0.5170425555770041 
-0.1998712923262049 
-0.0173506919701806 
0.001227001391387594 
-0.08793766171476913 
0 
0.1944340786778711 
0 
0 
0 
0 
0.04259142964778193 
0.002546782824350851 
1.388997945316252 
1.387778780781446e-17 
0 
0 
1.413423242945751 
0 
0 
-0.2376675070827223 
0 
-0.06701065546568352 
0 
0 
-0.2070710372440042 
0.02592485476369523 
1.090664125980528 
0.2100290296807326 
0 
-0.3894187158020256 
-0.7041510428959696 
1.427109594206934 
1.434412024392432 
0.451290502733593 
0 
-0.2726398064700536 
-0.309171194903096 
0.6540003657948448 
-0.5765482898450918 
0.8950606761363286 
0.0250418373937052 
0 
0 
0.3846837816537517 
0.2184826693613835 
-1.686804590718934 
1.12725468173059 
0 
1.387778780781446e-17 
0 
0.6230794743649508 
-0.4133988363326162 
0.0183350962459821 
0 
0 
0.2337426936433819 
0.4217504737108462 
-0.2104103793366456 
0 
0 
-0.5228591106407764 
-0.195213601697497 
-0.6436414430962527 
0.002940136760389722 
0.007919190033918604 
0.9940252384051492 
0 
0.06943605958956797 
0 
0.5863721767880563 
0.2272702814814733 
0.06771062572332495 
-0.02801574086018614 
-0.7086468395022502 
0 
0 
0 
-0.6011909958783612 
0 
1.212912842392565 
-0.952642295309271 
0 
0.4285306530092194 
0.7922444860698066 
0 
0 
0.006872578750067093 
0 
0.3182999242908747 
-0.2013033403975835 
0.8323082175415285 
0 
0.1868130701406012 
0.5411839037023406 
0.03502072420007291 
0.3595337072407686 
0.2691295080668855 
0.5710740217447772 
1.715474323956675 
0 
-0.1852684964619589 
0.2347155427527949 
0 
0 
-0.2529205487944038 
0.8013549027026347 
0.9422336146315597 
0.2051528767552769 
-0.3127532092856296 
0 
0.1680130852402265 
0.3007593445946356 
0.008640029971136035 
2.166437469905468 
0.3577774179011864 
0 
0.37174665334977 
0.4800925265326935 
0 
0.3944432145611597 
-0.2400953375351105 
0 
0.6439008837969542 
-0.3351407071075556 
0 
0.3813449135905677 
0 
1.550767623744556 
0.1039203168777525 
-0.226208553056834 
0.3800639397871247 
0.1364617542282415 
0.1145418621747718 
-0.4168497711594625 
-0.101615762736668 
0.1647182518117546 
0 
0.05270602267862434 
0.1942960325792763 
0 
0.05673331954563533 
0.3899791295906919 
-4.461267843775561 
0 
0.2306870781323496 
0.06469116235316089 
0 
0 
0 
1.319287726217838 
0.6886882252121823 
0 
-0.4415486675802326 
1.449287073059078 
0.1397269833072782 
-0.1952934519616321 
0 
0.2796706383075004 
-1.387778780781446e-17 
0.5074911835665983 
0 
-0.3856980087248582 
-0.1644180182819711 
0.7102219347480707 
-0.3397697457656057 
0 
0 
1.947137391077139 
-0.2453277237029327 
0 
0 
-0.4562053654869282 
-0.271062675692002 
0 
0.5638982359938317 
-0.07853412418231057 
0 
0 
0.8632321529591801 
-0.2099172576790109 
0.3695795531454391 
0.3674158655747778 
0 
0 
0.02943192856612871 
1.334880332903939 
-1.438924430798567 
0 
2.456443581030373 
0 
0.5435441776048062 
0 
0 
1.059450517409311 
0 
-0.06975065882261329 
0 
0.7925674978695891 
0.2564301836366025 
0 
-0.03643388216451122 
0.1042654863995573 
0 
0.4189163896321672 
1.038815009045799 
1.550594364696832 
-0.0739682102921984 
1.373366327315202 
0.4670049687427024 
-0.6118164866067557 
0 
0.4524409706907284 
-0.3288906280391756 
0.006872578750067093 
-0.05851415232569711 
0 
0.1222107707477467 
4.936630229509363 
-0.1292388489553687 
-0.4009491595905701 
-0.1257510333702781 
0 
1.122980586532051 
0.5427954434649622 
0.01006489537307406 
-0.502810512280259 
1.300646996890767 
-0.05196116701167022 
0 
-0.5405624804571053 
-0.2798102392739501 
1.183792242986664 
0 
0 
1.028378253603033 
0 
0 
0.6060913112156499 
0.2572714579530937 
0.1120168207360756 
-1.387778780781446e-17 
0 
0 
0.1389788210629887 
0 
-0.5600145897282039 
0.2020760696397116 
0.5900583973661968 
0.6828864971603429 
0.1031457839220851 
0 
0.2513526026677149 
-0.4056459543300375 
0 
3.883901915723654 
1.411268064426564 
0.06138437329387518 
0.6208888297567505 
-0.1187797659288402 
0 
0.1639488278632743 
2.083892511386352 
-0.5909664194437567 
0.03634944754457888 
0 
0.2329272888901064 
0.6095231240769071 
0 
0.1582315291242449 
0 
0.6232077056006219 
0 
-0.1017685131578643 
0.07638788612043763 
1.074252821860643 
0.006872578750067093 
0.005447787458656927 
-0.4022285995902923 
1.089515322353727 
2.775557561562891e-17 
0.2058552784038595 
1.327492052357078 
-0.1852217080966535 
-0.1974393209753941 
0 
1.487555869433391 
0.2936385317914515 
0 
0 
-0.2990392775292665 
0 
0 
0.3108280119062845 
-0.101949804081137 
0.6193680211461582 
0 
0 
0 
0.3900692991803693 
-0.3331689784676347 
0 
-1.27933970442106 
0 
0.1114220678551254 
0.4959654941903809 
0.326140024122727 
2.213586947194488 
0 
-0.2077057887826356 
-0.6383904796363241 
0 
0.7973562795081466 
0.1250849952822489 
0.5355726145138132 
-0.02891340401865018 
0.2198896639335247 
0.0829217429511987 
0.4358168681060856 
0 
-0.2121976386384343 
0 
0 
-0.5146670524657693 
0.4000734191873417 
-0.1303215078826676 
0 
0.1134670639219879 
0 
-0.1160557338355306 
0 
0 
0 
0 
-0.2495813333093373 
0 
-0.4020695554827093 
1.112832320583232 
1.578747439991478 
1.177058593001259 
-0.9672782995269555 
0.3655198737311885 
0 
0 
0 
1.007804725356708 
0 
0.1843670914067164 
-1.387778780781446e-17 
0.4326194641323562 
0.2419396777255771 
0.7116291028343994 
0 
0.1143223100569434 
0.6839647539351956 
-0.5963497640350708 
0 
0 
0.9162802975400098 
0.9076569527078602 
1.404008971290306 
-0.4803387573161326 
0.441603557051011 
1.105462720508935 
0 
-1.947484204607016 
0.5181956138552145 
0.206064735718316 
0.4148359630046624 
-0.2919944835025352 
-0.01799781889816233 
0.03580213363897405 
0.3551196783706905 
0.1462499188343146 
0 
1.250253371101506 
-0.02351557936427989 
-0.08143914533678784 
0 
-0.3930136504482779 
0 
0.12637489721703 
0 
0 
0.5223839637847031 
2.583684129546381 
0.6117417250806669 
0.299351414578058 
2.775557561562891e-17 
-0.2062541757709916 
0 
1.538055545532546 
-0.00825576005399515 
0 
0 
0.0414584598118289 
-0.3774353669792054 
1.203237548215185 
0 
0 
0.2560391388445531 
0.5603575459958029 
0 
0 
0 
1.335558054205163 
-0.2997569169370752 
-0.5641701182875083 
0.2728380681041028 
0.0116667861286435 
0.2861238920083021 
1.594245182560625 
0 
0 
0 
-0.4107704301936873 
0 
0.4725420284844338 
-0.64456945088442 
-0.4290005854686851 
0.1072586532711659 
0.3560879406877863 
0 
5.384754121239612 
0.8348307054018944 
-0.0603019076901367 
0.1515256300355185 
0.0281304837462221 
0.6735637520325245 
-0.2144149019500087 
-0.1057793388374631 
-0.0651139785539869 
0.02791622191202175 
0.5742859523934865 
0.02678635615315756 
0 
0.001011300953682723 
0 
0 
0 
0 
0.5304959673518364 
7.742453144313935 
1.016926066410235 
0 
-0.5970511812205943 
0 
0 
0.2967644349429909 
0.5865705176418302 
0.1711266353034486 
-0.03682901957523529 
-0.3024955240993307 
0 
0.930080373543368 
0.3320329890628846 
0 
-0.26776264435933 
1.387778780781446e-17 
1.076768335045865 
0.2323631551944371 
0 
0 
0.1038029248443631 
-0.6244556179549672 
0.1163810936308181 
0.06072295686712899 
0.4221337930694076 
-0.8020908934287312 
0.0708165408273586 
0.2794866731535582 
0.1220135205171902 
-0.4155434340893048 
1.258218950927661 
1.207372914785941 
0 
0 
4.742396570153723 
0.4877683790247463 
1.245060116813831 
0.3911969759363643 
-0.1919437387401378 
0 
-0.01168204714478314 
-0.1141343772122506 
0 
1.117857656280329 
-1.197395535390046 
0 
0 
0 
0 
0.258783101262091 
-0.07960589925348803 
6.938893903907228e-18 
-0.4471895163019988 
0 
1.527248620096636 
0.1224002344564872 
-0.2126349917193324 
-0.1756466402096379 
0 
0.1625114001342115 
0 
0.2689023228604888 
-0.2410584040019962 
-0.2295007879493035 
0.7207507798249506 
0 
1.095414659482895 
0.5409620595672586 
0 
0 
1.455523878618101 
0.3350183653118489 
0.5586779042953168 
1.473979136537182 
0.03192066674963713 
0.7954306590423441 
-1.387778780781446e-17 
0.8627359216445992 
0 
0.1343142621645645 
0 
0 
0 
0 
0 
0 
1.387778780781446e-17 
-0.4382211180940951 
1.61010265679298 
-0.02193529822920097 
0.1038029248443631 
0 
0 
-0.3210205037593956 
0 
1.513547900002264 
0 
1.428743594805978 
0.451565376072689 
0.677262339112314 
0 
0.1499606811684803 
0.1041356429431437 
0 
0.0660514239039436 
0.9693366294643815 
0.01345723958326539 
1.540350718063384 
0 
0.7816526040712958 
-0.2102108557661064 
0 
0.06188263580053721 
0.09291695566193195 
0 
0 
1.096123049548432 
0.1098424125681526 
0.2143131499277926 
0 
-0.5228591106407764 
0.02927307404274752 
0 
0.1639258248090195 
0 
-0.6763771203727162 
0.1250943951076573 
-0.2649002992368258 
-1.387778780781446e-17 
1.837268575297184 
0.1857683235385893 
0 
0.424375185350464 
0.02788522083907868 
1.085947340824484 
0.3414964826745879 
-0.3546473362636837 
0.2933570783564612 
0.308016261042983 
0 
-0.02662552167328704 
0 
-0.4300146859270281 
0.1046353025904611 
-0.5719401766975502 
0 
-1.387778780781446e-17 
0.02258889185004213 
-0.1601311386939157 
1.008002049546206 
0.8344902460023865 
-0.5474964757474406 
0.7294693451706975 
0.1183156675027721 
0.8560579484787607 
0 
-0.1549562217818544 
0.569575354181111 
-1.232105058458934 
-0.09643162062053615 
0 
0.08595648415757756 
0.1884416403689825 
0 
0 
1.134949030640401 
0.3575561016916927 
0 
2.83505117940168 
1.453172898725742 
0 
0.3155215458944606 
-0.4334984046964571 
0.938151973854947 
0.02719191584956667 
-0.3904715150923579 
0.1148471364498298 
0 
-0.2197886694710739 
-0.05087598093212362 
1.878031460484678 
0.1471363755269185 
0 
0 
-0.1658482885616921 
-0.1086439869116211 
1.395179694439542 
0.9997189131596184 
1.00667101474911 
0.8302180339053352 
0 
0.01976218128260941 
-0.2202567947527786 
0 
0 
-1.387778780781446e-17 
0.006722454881533918 
0.01742663142599862 
0.7012105703143658 
0 
-0.1392231789179762 
0 
0 
0.06568138836290954 
0.4031055308861644 
-0.1198427685172752 
0 
-0.1639028167956774 
0.01066706042820798 
0.459677509441287 
-0.02015877598112127 
-0.2839350862775198 
0 
0.1693364439607945 
0.8841159850691261 
1.387778780781446e-17 
0.3896214517440103 
1.265459054080561 
0 
-0.1402384973642952 
-0.6629431656785658 
0 
0 
0 
0.009106897369550001 
-0.1608598363262322 
0.7474382685103449 
0.522633268144828 
-0.002939475449222319 
3.469446951953614e-18 
0.04143616978744331 
0 
0 
0.03067631938779477 
0 
0.66208668429379 
0 
-0.2980092647190749 
0.3497511754538652 
0.3834264185517089 
0.9162299902665122 
-0.4679362999789469 
1.428025599091121 
-6.938893903907228e-18 
0.6731645078722081 
0 
0.06123989479120825 
1.763352558429337 
0.5887566950390645 
0.5540814893949348 
0.8413463964305672 
0 
6.938893903907228e-18 
-0.12989184806265 
-0.2860412927670953 
-0.6649543715676538 
0.07177060416202134 
0.239860322562793 
0.1204691003331055 
0.04695796989595589 
0.5119359384614761 
0.6769022592992273 
0.889524080413957 
0.3726819892573185 
-0.1221240622189 
-0.3610106017933826 
0 
0 
0 
1.554729014967487 
0.2912897445852332 
0.390434764024466 
0.2974400337843662 
0.9130799169676335 
-1.197179908311058 
0.2023203407535579 
0 
0.455401765653698 
0.5251973660485344 
0.4143338583994884 
0.1232506167881204 
0 
0.1564686734392827 
0.4427704028720691 
0 
0.1350173077055865 
0.29241520505929 
0.8822944962201722 
0.9967437723632061 
0 
0.02021125108984244 
0.5966675115374084 
0.5318293769149868 
-0.3530115085282676 
1.368926456811434 
0.2914910646681984 
-0.6571039242765224 
1.179726045033026 
0.9349701811774627 
0.03067631938779499 
0 
0 
0 
0.04984732569732955 
0.04695796989595589 
0.8634490860521283 
-0.3991504512519833 
0.0845854080567047 
0.3719256102698234 
0 
0 
0.4511338008511931 
0.9113144373208328 
-0.561779788433496 
1.19806727932135 
-0.02276201985691156 
-0.134940236325951 
0.8593323847389609 
0.1026291847643345 
1.087416871618926 
-0.2146866435063928 
0.3149200724314211 
0 
0 
-0.04905679004315017 
-0.07298312633814358 
0.0196578310722833 
-0.1087703344138125 
0.4189819282312594 
0 
1.952599226548405 
-0.2585700666689813 
0.06176806959842431 
2.654721701458866 
0.4539813224046774 
0 
0.0183350962459821 
0 
0.610731112860818 
0.4053288853611895 
0.146570738412631 
0.2113884536674799 
0 
0 
0.7218792611187514 
-0.2655875552064945 
2.775557561562891e-17 
0.05423711683326739 
0 
0 
-0.3208780759818392 
2.60348171887919 
0 
0.09473616209421865 
0 
0 
0 
0 
0.184219325803302 
0 
0.1936636472335367 
-0.3643762173904209 
-0.1042175143924957 
0 
1.982278905510983 
0 
0 
-0.08469131379743459 
0.3220562464681108 
0.1430950932096996 
0 
-0.1673957789636293 
0.2934226184116766 
0.657603516325446 
0.05602938033384695 
0 
0 
0.1711585771125855 
0 
0.3823652982528841 
0.1299060902678303 
0.5361655421687066 
0.2112691862153625 
0.1005928273469384 
0.01891114095209972 
0.2254312910118086 
-0.2928624474144639 
0.3012695430251324 
0.5129890338679245 
0.2611831512739297 
0.53195623888287 
0.09660436630981432 
0.5461631771047761 
0 
0.0003811566411844508 
1.292567588021207 
0 
0.9173815888936658 
1.113727451222853 
-0.1108024728647709 
-0.2001242852077617 
-0.6795795215721938 
-2.775557561562891e-17 
-0.3865289217621946 
0.1049476760520101 
0 
0.4467933133526337 
0 
0.4605613968469505 
-0.1663196666998026 
0.5297580027834425 
0 
0.04269164960468855 
0 
0.135970875267425 
0 
0.1535399761692161 
0 
0 
1.146346986616829 
0.3014431569331282 
1.387778780781446e-17 
-0.5593082109364095 
0 
0.3649626300351875 
0.4170792123469114 
0 
0.5992769866292933 
-0.9689009332567371 
1.013653446042447 
1.801547731525399 
0.1340801834051595 
-0.4815903495712477 
0 
-0.5008878380794567 
0.448535069901731 
0.3112310026419908 
-0.2233907363808138 
0.8675289448915119 
0.7918203795269823 
0.9540894256450027 
0.5486061001178573 
1.054146436103627 
0 
1.851992898118043 
1.055237128665196 
0.03400238363570404 
-0.9615453182883404 
-0.4831785997685328 
-0.2785895865458788 
0.05907134772123626 
1.061036035469189 
-1.103852902743389 
0 
0.4703125982687036 
0.06138437329387518 
0.01660656471959255 
0 
0 
0 
0 
3.252033854504675 
0 
-0.4482801491766953 
1.10258671266381 
0.5234680005885919 
-0.3656870556391726 
-1.387778780781446e-17 
1.142590215865905 
2.611748711546214 
0 
0 
0 
-0.1642659316302828 
0.7967219687894052 
0 
1.102629346154468 
2.231670786147645 
0.2680677089461413 
0 
0 
0.01054760116206642 
0.4435090794937382 
-0.04518170699983712 
-0.3568247437848509 
-0.02057398569452085 
0.7233239448770378 
0 
0 
0 
0.5109539319344615 
-0.1299844448615728 
2.035964488035123 
0.778938194387248 
0.2268214177552054 
0.1796701097955086 
-0.1940229198261043 
0.8191293633926118 
0.6443244532322567 
-0.2275045078900747 
-0.2563841090956394 
0 
0 
0 
0.3128662585159335 
0 
0 
0 
-0.08664720979911311 
0.03137305632334528 
0.3486402758072734 
-0.06188579040786081 
-2.775557561562891e-17 
0 
0.02555099632203192 
0.7946819720015007 
-1.578598363138894e-16 
0 
1.002913316250272 
-0.4536410499926323 
0 
0.6688647138248575 
0 
1.824978634266052 
-0.3359274071076466 
0.1249180129123536 
1.298418539310114 
0 
0.2071660619587804 
-0.1172258308258562 
0 
0 
-0.1376132938914114 
1.496051134700651 
1.872271384093315 
0.4667398758565037 
1.538787563393388 
0 
0 
0 
0 
0.08932589086889253 
0.07544265753274106 
0.01378676096393823 
-0.05801353630330063 
-0.1768040909797262 
-0.1187776545430272 
0 
0.4463218763594111 
-0.01594138360778038 
0 
0.3143429920726697 
0.02603947402375083 
0 
0.6160741216953555 
0 
0.2941012511647066 
0 
0 
0.02590676178869972 
0 
0.03137305632334567 
0.3321062092855528 
0.0141437738108364 
0.3981012410486308 
-0.000239025104476806 
0.5022702414173467 
0.3877204298891676 
0.2692968865780081 
0 
0.7571204160616811 
0.04789320864317942 
0 
0 
0 
0 
1.516400840549548 
0.5853474577884089 
0 
2.775557561562891e-17 
0.07544532188280838 
0.9385839967641767 
0 
-0.5826939452928404 
0.1507004472382778 
0 
3.469446951953614e-18 
1.628854453276095 
0.105551303024938 
-0.04041719307501485 
-0.1468252700260207 
0 
0.05534998126787563 
0.8083805089908671 
0.4535461786350812 
-0.04791490511707709 
0 
1.201524434047298 
0.01134160522558879 
-0.08281730057835747 
0 
0.3158410588090972 
0.02002790737020468 
0.4584630179701825 
0 
0.3340256654684414 
0 
0 
0 
0.13105949594966 
0 
0.009157056213374093 
0 
-0.4695065806153386 
0.105118103252172 
0.2476568881723872 
0 
0 
0 
1.030576353164246 
-0.3260239989997448 
-0.03770111103770831 
0 
0 
-0.73045099258707 
-0.3994153962164473 
0 
-0.5480970110967978 
0.3961947437291012 
0 
0 
6.938893903907228e-18 
0.152824885326698 
0.2137574781449051 
0 
0.7855999433779746 
0.9600346302025922 
-0.1669537103910474 
-0.2026963781977322 
-1.511907827224465 
0.4286180038877081 
0.3880828850707949 
-0.05733203109709034 
1.762246833694975 
-1.104190313953197 
0.02592430034713489 
0 
0.4337207320000274 
-0.1359497549327 
0.04499108001898695 
0.5518941260475577 
0 
0.0660514239039436 
0.3632577436130984 
0 
0 
0.112049334594103 
0.7944219324751751 
-0.3285296772765398 
0.2160398611259081 
0 
0 
0.8247410400318034 
1.174133482312099 
0.8567486383572093 
0 
0 
0 
0.519824748547097 
-0.4213955998304427 
0.6913595478643347 
0.6925851549636397 
0.4751359742512516 
0 
0 
-0.1383743418221512 
1.08248934076488 
-0.1405585248231301 
0.2469694750974208 
-0.3183824825436338 
0.4955292372545726 
0 
0 
0 
-0.09712641421261849 
0.3503579793666009 
0 
-0.405465393010072 
-0.4194866736670451 
0.42664553859747 
0 
-0.1781742065221554 
0.01299248515958935 
0 
0 
0.08964126832252407 
-0.7839118637458884 
-0.395949645925348 
0 
0.7387594537756514 
-0.02276360025907487 
-0.1452970408709051 
0.02684643442867408 
0.04365441367836856 
1.542890461447448 
0 
0 
0 
0.5666066111240347 
1.387778780781446e-17 
-0.1843526483298382 
0 
0.3585546342315375 
1.090048241931639 
0.9661889892570786 
0.1158765582561206 
-2.688821387764051e-17 
0.07531794948384814 
1.39699627979245 
0 
0 
0 
1.025089078719138 
0 
0.01834788978922569 
-0.02498796102841035 
0.8443159393682962 
0 
0.2328762901691922 
0.004319103278550278 
0.103096104626076 
-0.06299229925782514 
0.5430317258337207 
-2.775557561562891e-17 
0 
1.052658305430572 
0 
0 
5.204170427930421e-18 
0.6828611059527383 
-0.06993637687876876 
0.1870377874753824 
-0.2391217056191475 
0.3033014670831873 
0 
0.2242894317762273 
0.07532152294836102 
0.321925966758497 
-0.2279045468000485 
1.65261898475648 
0.03544391892862715 
-0.1147643967191664 
0.4394314048896159 
-0.3759174733606652 
0 
0 
0.1220394633968112 
0 
-0.38407792791239 
0 
0 
0.3620622938946925 
-0.3139338480075492 
0.5329202919256185 
0.001853409933203049 
0.1424026071716862 
-0.7529052020537537 
0.8174604794976527 
0 
0 
0 
-0.1249840812202029 
-0.5129377610807053 
-0.1475844499537528 
0.136397428424298 
-0.1690761497267503 
1.284362320251832 
0.4960304267788125 
0.1567878617057016 
0.9234389840453401 
0.867637287684633 
0.2674322478552355 
-0.1302185429514953 
-0.7744983394350976 
-0.227143153218072 
0.7088161987206471 
0 
0.7526379717093001 
0.6155330553785152 
0.7883769615712296 
0.5237211697058056 
1.505309806073492 
0.006736889638567056 
0 
0 
-0.1586718718012283 
0.756946209375305 
0.01123000358127375 
0.00833396816338047 
1.365266879105155 
0 
0.1532239924853549 
-0.05589353939616382 
0.3113522483850955 
0.4069260374367518 
-0.6851793723374042 
0 
1.466496032716231 
2.138381851756507 
0 
0 
-0.1475298845794651 
0.01453456350017898 
0 
-0.17244676513772 
-1.387778780781446e-17 
0.02592485476369523 
0.6441919317539641 
0.08338129480061685 
0.2497235392016409 
0 
0 
0 
0.03626191713421635 
1.557295839672187 
0.7399478892857703 
0.9905811172728594 
0 
0 
1.563002430536911 
1.456951394465896 
0.1853618498099994 
0.01022258006785545 
0.6232077056006218 
0.3720384234228959 
0.4207826852511087 
-0.5190221325032924 
0 
0.02718869392515666 
-0.5112559483709127 
0 
-0.08259984187959857 
0.03696888518700964 
0.3947669640984218 
0 
0 
0.2702901956830757 
0.2246886157358567 
-1.387778780781446e-17 
0.1367380865010915 
0.1156814523335646 
-0.5228591106407766 
0.4173237290631644 
-0.01855032326495078 
1.019110680606762 
-0.2444050567230036 
0.06530951181672785 
1.617652301112421 
0.5745438777334414 
0.5035112929493579 
0.1290756052528542 
1.387778780781446e-17 
0.03636147992207762 
0 
-0.0956809542097832 
0 
0.4163539047668241 
0.1203661151519223 
0.1094367258170791 
0.155927887622747 
0.3353716057146003 
1.478155933565943 
0.7442122130202591 
0.01578083294692382 
0 
0.2246886157358567 
0.03291728403595868 
-0.4015182681299709 
0.06516008329146736 
0 
0.1906117102956311 
0.3695398173887837 
0 
0 
0.007907726574231159 
1.062969040603805 
-0.2054109247157432 
1.085947340824483 
1.209213913167003 
0 
0.2584647567623214 
-0.07200021631528841 
0.1303304523753001 
1.216104692427811 
1.048947270642209 
0 
2.568841914356171 
0.3863091607986392 
0.5161188943498165 
0.219963098774258 
0.3785906676307094 
0 
0 
0 
-1.562006052403955 
-0.1814476786815187 
0.1293266378188968 
0 
1.734723475976807e-17 
0.8866170620185931 
1.060012020358475 
0 
2.844972015687228 
-2.775557561562891e-17 
0.3012467594749683 
0.3768338173268112 
1.270697600152601 
0 
0.4788134909951349 
0.6650116516446704 
0 
0 
0 
-0.3849741196504723 
0.8095949317062305 
0 
0 
0 
0.150037439904367 
0.1731420915408696 
0.08417007014788815 
0.4785538917047995 
0 
0.6636662297874029 
-0.1738198994024772 
0.2577002498778467 
0 
-1.305026978646997 
-0.05550842358426913 
0 
0.1268891996967528 
0.2687364723030374 
-0.0339280835865074 
0.5791383625293913 
0.01190962959734742 
0.6516519319665778 
0.5528957586272943 
1.257197550807869 
0.7371104808760606 
0.6869783089843405 
0.2564239522209704 
0.260141104770209 
-0.1161808781936177 
2.775557561562891e-17 
0.7888094558544918 
0 
1.6407045414331 
-0.4844375309331874 
0 
0.01754403444697906 
0 
0 
0 
0.01801856877940367 
-0.3652453777356316 
0 
0.1916014212253258 
1.165486839980309 
0.0219897777532046 
0.04471392570946574 
-2.081668171172169e-17 
-0.5327268912663878 
-0.308736913202391 
0.1579895554360499 
0.1781793307995846 
-0.4584045230641093 
0.2781204123825503 
0 
0 
0.4504111653791527 
0 
0 
0.09779247935592059 
-3.122502256758253e-17 
-0.0409217668205255 
0.4489432849328828 
0.2469442023790383 
-0.4649464299052087 
0.8773214956977741 
-1.387778780781446e-17 
0.1968158777952536 
0 
0 
0 
-0.1886213854915848 
0.03980006313125468 
0.4645769980313862 
-0.2874734817866119 
-0.1853008896324997 
0 
0 
0 
6.938893903907228e-18 
0.3308185083922313 
0.04651146725610161 
0.462230415289542 
-6.938893903907228e-18 
-0.9484111570183151 
0.08950426807299848 
0.251671935089116 
0.9758641513802915 
0.8620259739983747 
-0.2632865955201151 
0 
0 
0 
1.113378432919947 
0.2763701414482582 
0.1519696411762397 
0.740196200166064 
-0.8894044949417841 
0 
-2.775557561562891e-17 
